svm_type c_svc
kernel_type linear
nr_class 2
total_sv 115
rho -1.0007903089776802
label 1 -1
nr_sv 57 58
SV
1 1:1 2:0 3:0 4:0 5:1 6:1 7:0 8:0 9:0 10:1 11:0 12:0 13:0 14:0 15:0 16:0 17:0 18:0 19:0 20:0 21:0 22:1 23:0 24:1 25:0 26:0 27:0 28:0 29:0 30:0 31:0 32:1 33:0 34:0 35:1 36:1 37:1 38:1 39:1 40:1 41:1 42:1 43:1 44:1 45:0 46:1 47:1 48:1 49:1 50:1 51:1 52:0 53:0 54:0 55:1 56:1 57:1 58:0 59:1 60:0 61:1 62:0 63:0 64:1 65:1 66:0 67:0 68:0 69:1 70:0 71:1 72:1 73:1 74:1 75:0 76:0 77:1 78:0 79:0 80:0 81:0 82:1 83:1 84:1 85:1 86:1 87:0 88:0 89:1 90:1 91:1 92:1 93:1 94:1 95:1 96:1 97:1 98:1 99:1 100:1 101:1 102:1 103:0 104:0 105:0 106:0 107:0 108:1 109:1 110:1 111:1 112:1 113:1 114:1 115:1 116:0 117:1 118:0 119:0 120:1 121:0 122:1 123:0 124:0 125:1 126:0 127:0 128:1 129:0 130:0 131:0 132:0 133:1 134:0 135:1 136:1 137:1 138:1 139:1 140:0 141:0 142:0 143:0 144:0 145:0 146:0 147:0 148:0 149:0 150:1 151:0 152:0 153:1 154:0 155:0 156:0 157:1 158:0 159:1 160:0 161:0 162:0 163:0 164:0 165:0 166:0 167:0 168:0 169:0 170:1 171:0 172:0 173:0 174:0 175:0 176:0 177:0 178:0 179:0 180:0 181:0 182:0 183:0 184:0 185:0 186:0 187:0 188:0 189:0 190:0 191:1 192:0 193:0 194:0 195:0 196:0 197:0 198:0 199:0 200:1 201:0 202:0 203:0 204:0 205:0 206:0 207:0 208:0 209:0 210:0 211:0 212:1 213:0 214:0 215:0 216:0 217:0 218:1 219:0 220:0 221:0 222:0 223:0 224:0 225:0 226:0 227:0 228:0 229:0 230:0 231:0 232:0 233:0 234:0 235:0 236:0 237:0 238:0 239:0 240:0 241:0 242:0 243:0 244:0 245:0 246:0 247:0 248:1 249:1 
0.025832173257554939 1:1 2:0 3:1 4:0 5:1 6:1 7:0 8:1 9:0 10:0 11:1 12:0 13:1 14:1 15:1 16:1 17:0 18:0 19:0 20:0 21:1 22:1 23:0 24:0 25:0 26:0 27:0 28:0 29:0 30:0 31:0 32:0 33:0 34:0 35:0 36:0 37:1 38:1 39:1 40:1 41:1 42:1 43:1 44:1 45:0 46:0 47:0 48:1 49:1 50:1 51:1 52:1 53:1 54:1 55:1 56:1 57:1 58:1 59:1 60:1 61:1 62:1 63:1 64:1 65:1 66:0 67:0 68:0 69:1 70:0 71:1 72:1 73:1 74:1 75:0 76:0 77:0 78:1 79:0 80:0 81:0 82:1 83:1 84:1 85:1 86:1 87:1 88:1 89:1 90:0 91:0 92:1 93:1 94:1 95:1 96:1 97:1 98:1 99:0 100:0 101:1 102:0 103:0 104:1 105:0 106:1 107:0 108:1 109:0 110:1 111:1 112:1 113:0 114:1 115:1 116:1 117:1 118:0 119:1 120:0 121:1 122:1 123:0 124:0 125:0 126:0 127:0 128:0 129:0 130:0 131:0 132:0 133:0 134:0 135:0 136:0 137:0 138:0 139:0 140:0 141:0 142:0 143:0 144:0 145:0 146:0 147:0 148:0 149:0 150:0 151:0 152:0 153:0 154:0 155:0 156:0 157:0 158:0 159:0 160:0 161:0 162:0 163:0 164:0 165:0 166:0 167:0 168:0 169:0 170:0 171:0 172:0 173:0 174:0 175:0 176:0 177:0 178:0 179:0 180:0 181:0 182:0 183:0 184:0 185:0 186:0 187:0 188:0 189:0 190:0 191:0 192:0 193:0 194:0 195:0 196:0 197:0 198:0 199:0 200:0 201:0 202:0 203:0 204:0 205:0 206:0 207:0 208:0 209:0 210:0 211:0 212:0 213:0 214:0 215:0 216:0 217:0 218:0 219:0 220:0 221:0 222:0 223:0 224:0 225:0 226:0 227:0 228:0 229:0 230:0 231:0 232:0 233:0 234:0 235:0 236:0 237:0 238:0 239:0 240:0 241:0 242:0 243:0 244:0 245:0 246:0 247:0 248:1 249:1 
0.28897539231889546 1:1 2:0 3:1 4:0 5:1 6:1 7:0 8:0 9:0 10:0 11:0 12:0 13:0 14:1 15:1 16:1 17:1 18:0 19:0 20:0 21:0 22:1 23:0 24:1 25:0 26:0 27:0 28:1 29:1 30:1 31:1 32:1 33:0 34:0 35:1 36:0 37:1 38:1 39:1 40:1 41:1 42:1 43:0 44:1 45:0 46:1 47:0 48:1 49:1 50:1 51:0 52:0 53:0 54:0 55:0 56:1 57:0 58:0 59:1 60:0 61:0 62:0 63:0 64:0 65:1 66:0 67:0 68:0 69:1 70:0 71:1 72:1 73:1 74:1 75:0 76:0 77:0 78:0 79:0 80:0 81:0 82:1 83:1 84:0 85:0 86:0 87:0 88:0 89:1 90:1 91:1 92:1 93:1 94:1 95:1 96:1 97:1 98:1 99:1 100:1 101:1 102:1 103:0 104:0 105:0 106:0 107:0 108:0 109:1 110:1 111:1 112:0 113:1 114:0 115:1 116:0 117:0 118:0 119:0 120:0 121:0 122:1 123:0 124:0 125:1 126:0 127:0 128:1 129:0 130:0 131:0 132:0 133:1 134:1 135:0 136:0 137:0 138:0 139:0 140:0 141:0 142:0 143:0 144:0 145:0 146:0 147:0 148:0 149:0 150:1 151:1 152:1 153:1 154:1 155:0 156:1 157:1 158:0 159:0 160:1 161:1 162:1 163:1 164:0 165:0 166:1 167:0 168:1 169:1 170:0 171:0 172:0 173:0 174:0 175:0 176:0 177:0 178:0 179:0 180:0 181:0 182:0 183:0 184:0 185:0 186:0 187:0 188:0 189:0 190:0 191:1 192:0 193:0 194:0 195:0 196:0 197:0 198:1 199:1 200:1 201:0 202:0 203:0 204:0 205:0 206:0 207:0 208:0 209:1 210:0 211:1 212:1 213:0 214:0 215:0 216:0 217:0 218:0 219:0 220:0 221:1 222:0 223:0 224:1 225:0 226:0 227:0 228:0 229:1 230:1 231:0 232:0 233:0 234:0 235:0 236:0 237:1 238:0 239:1 240:0 241:0 242:0 243:0 244:0 245:0 246:0 247:0 248:1 249:1 
0.35073595669300689 1:1 2:0 3:1 4:0 5:1 6:1 7:0 8:0 9:0 10:1 11:0 12:0 13:0 14:1 15:1 16:1 17:0 18:0 19:0 20:0 21:0 22:1 23:0 24:1 25:0 26:0 27:0 28:1 29:1 30:1 31:1 32:1 33:0 34:0 35:1 36:1 37:1 38:1 39:1 40:1 41:1 42:1 43:1 44:1 45:0 46:1 47:1 48:1 49:1 50:1 51:1 52:0 53:0 54:0 55:1 56:1 57:1 58:0 59:1 60:0 61:1 62:0 63:0 64:1 65:1 66:0 67:0 68:0 69:1 70:0 71:1 72:1 73:1 74:1 75:0 76:0 77:1 78:0 79:0 80:0 81:0 82:1 83:1 84:1 85:1 86:1 87:0 88:0 89:1 90:1 91:1 92:1 93:1 94:1 95:1 96:1 97:1 98:1 99:1 100:1 101:1 102:1 103:0 104:0 105:0 106:0 107:0 108:1 109:1 110:1 111:1 112:0 113:1 114:1 115:1 116:0 117:1 118:1 119:0 120:0 121:0 122:1 123:0 124:0 125:1 126:0 127:0 128:1 129:0 130:0 131:0 132:0 133:1 134:1 135:1 136:1 137:1 138:1 139:0 140:0 141:1 142:1 143:1 144:1 145:1 146:1 147:0 148:0 149:0 150:1 151:1 152:1 153:1 154:1 155:1 156:1 157:1 158:0 159:0 160:1 161:1 162:1 163:1 164:0 165:0 166:1 167:0 168:1 169:1 170:1 171:1 172:1 173:1 174:1 175:0 176:0 177:0 178:0 179:0 180:1 181:0 182:0 183:0 184:1 185:0 186:0 187:0 188:0 189:0 190:0 191:1 192:0 193:0 194:0 195:0 196:0 197:0 198:1 199:1 200:1 201:0 202:0 203:0 204:0 205:0 206:0 207:0 208:0 209:1 210:1 211:1 212:1 213:0 214:0 215:0 216:0 217:0 218:0 219:0 220:0 221:1 222:0 223:0 224:1 225:0 226:0 227:0 228:0 229:1 230:1 231:0 232:0 233:0 234:0 235:0 236:0 237:1 238:0 239:1 240:0 241:0 242:0 243:0 244:0 245:0 246:0 247:0 248:1 249:1 
0.11746770712189995 1:1 2:1 3:1 4:1 5:1 6:1 7:1 8:1 9:0 10:1 11:0 12:0 13:0 14:1 15:1 16:1 17:1 18:0 19:0 20:1 21:0 22:1 23:1 24:1 25:1 26:1 27:1 28:0 29:0 30:0 31:0 32:1 33:1 34:1 35:1 36:1 37:1 38:0 39:1 40:0 41:1 42:0 43:1 44:0 45:0 46:1 47:0 48:0 49:0 50:0 51:0 52:0 53:0 54:0 55:0 56:0 57:0 58:0 59:0 60:0 61:0 62:0 63:0 64:0 65:1 66:1 67:1 68:1 69:1 70:1 71:1 72:0 73:1 74:0 75:1 76:1 77:1 78:0 79:0 80:0 81:0 82:1 83:0 84:1 85:0 86:0 87:0 88:0 89:1 90:1 91:0 92:0 93:0 94:0 95:0 96:0 97:1 98:0 99:1 100:0 101:0 102:0 103:0 104:0 105:0 106:0 107:0 108:0 109:0 110:0 111:0 112:0 113:0 114:0 115:0 116:0 117:0 118:0 119:0 120:0 121:0 122:1 123:1 124:1 125:1 126:1 127:1 128:1 129:1 130:0 131:0 132:0 133:1 134:0 135:1 136:1 137:1 138:0 139:0 140:0 141:0 142:0 143:0 144:0 145:0 146:0 147:0 148:0 149:0 150:1 151:0 152:0 153:1 154:0 155:0 156:0 157:0 158:0 159:0 160:0 161:0 162:0 163:0 164:0 165:0 166:0 167:0 168:0 169:0 170:1 171:0 172:0 173:0 174:0 175:0 176:0 177:0 178:0 179:0 180:0 181:0 182:0 183:0 184:0 185:0 186:0 187:0 188:1 189:0 190:0 191:1 192:1 193:0 194:0 195:0 196:0 197:0 198:0 199:0 200:1 201:1 202:0 203:0 204:0 205:0 206:0 207:0 208:0 209:0 210:0 211:0 212:0 213:0 214:0 215:0 216:0 217:0 218:0 219:0 220:0 221:0 222:0 223:0 224:0 225:0 226:0 227:0 228:0 229:0 230:0 231:0 232:0 233:0 234:0 235:0 236:0 237:0 238:0 239:0 240:0 241:0 242:0 243:0 244:0 245:0 246:0 247:0 248:1 249:0 
0.12319605034113529 1:1 2:1 3:1 4:0 5:1 6:1 7:1 8:1 9:0 10:1 11:1 12:0 13:0 14:1 15:1 16:1 17:0 18:0 19:0 20:0 21:1 22:1 23:1 24:1 25:1 26:1 27:1 28:1 29:0 30:0 31:1 32:1 33:1 34:0 35:1 36:1 37:1 38:1 39:1 40:1 41:1 42:1 43:1 44:1 45:1 46:1 47:1 48:1 49:1 50:1 51:1 52:0 53:0 54:0 55:1 56:1 57:1 58:0 59:1 60:0 61:1 62:0 63:0 64:1 65:1 66:1 67:1 68:1 69:1 70:1 71:1 72:0 73:1 74:1 75:1 76:1 77:1 78:1 79:1 80:1 81:1 82:1 83:1 84:1 85:1 86:1 87:0 88:0 89:1 90:1 91:0 92:1 93:1 94:0 95:1 96:0 97:1 98:1 99:0 100:0 101:1 102:0 103:0 104:0 105:0 106:0 107:0 108:1 109:0 110:1 111:0 112:0 113:0 114:1 115:1 116:0 117:1 118:0 119:0 120:0 121:0 122:1 123:1 124:1 125:1 126:1 127:1 128:1 129:1 130:0 131:0 132:0 133:0 134:0 135:0 136:0 137:0 138:0 139:0 140:0 141:0 142:0 143:0 144:0 145:0 146:0 147:0 148:0 149:0 150:0 151:0 152:0 153:0 154:0 155:0 156:0 157:0 158:0 159:0 160:0 161:0 162:0 163:0 164:0 165:0 166:0 167:0 168:0 169:0 170:1 171:0 172:0 173:0 174:0 175:0 176:0 177:0 178:0 179:0 180:0 181:0 182:0 183:0 184:0 185:0 186:0 187:0 188:1 189:1 190:1 191:1 192:1 193:0 194:0 195:0 196:0 197:0 198:0 199:0 200:0 201:0 202:0 203:0 204:0 205:0 206:0 207:0 208:0 209:0 210:0 211:0 212:0 213:0 214:0 215:0 216:0 217:0 218:0 219:0 220:0 221:1 222:1 223:0 224:1 225:1 226:0 227:0 228:0 229:0 230:0 231:0 232:0 233:0 234:0 235:0 236:0 237:0 238:0 239:0 240:0 241:0 242:0 243:0 244:0 245:0 246:0 247:0 248:1 249:1 
1 1:1 2:0 3:1 4:1 5:0 6:1 7:0 8:1 9:1 10:0 11:1 12:1 13:1 14:1 15:1 16:1 17:1 18:0 19:1 20:1 21:1 22:0 23:0 24:0 25:0 26:0 27:0 28:0 29:0 30:0 31:0 32:0 33:0 34:0 35:0 36:0 37:1 38:0 39:1 40:0 41:1 42:1 43:1 44:1 45:0 46:0 47:0 48:1 49:1 50:1 51:1 52:0 53:0 54:1 55:1 56:1 57:1 58:0 59:1 60:0 61:1 62:0 63:0 64:1 65:1 66:0 67:0 68:0 69:1 70:0 71:0 72:0 73:1 74:1 75:0 76:0 77:0 78:1 79:0 80:0 81:0 82:1 83:1 84:1 85:1 86:1 87:0 88:1 89:1 90:0 91:0 92:1 93:0 94:0 95:0 96:0 97:1 98:1 99:0 100:0 101:1 102:0 103:0 104:0 105:0 106:0 107:0 108:1 109:0 110:1 111:0 112:0 113:0 114:1 115:1 116:0 117:1 118:0 119:0 120:0 121:0 122:0 123:0 124:0 125:0 126:0 127:0 128:0 129:0 130:0 131:0 132:0 133:0 134:0 135:0 136:0 137:0 138:0 139:0 140:0 141:0 142:0 143:0 144:0 145:0 146:0 147:0 148:0 149:0 150:0 151:0 152:0 153:0 154:0 155:0 156:0 157:0 158:0 159:0 160:0 161:0 162:0 163:0 164:0 165:0 166:0 167:0 168:0 169:0 170:0 171:0 172:0 173:0 174:0 175:0 176:0 177:0 178:0 179:0 180:0 181:0 182:0 183:0 184:0 185:0 186:0 187:0 188:0 189:0 190:0 191:0 192:0 193:0 194:0 195:0 196:0 197:0 198:0 199:0 200:0 201:0 202:0 203:0 204:0 205:0 206:0 207:0 208:0 209:0 210:0 211:0 212:0 213:0 214:0 215:0 216:0 217:0 218:0 219:0 220:0 221:0 222:0 223:0 224:0 225:0 226:0 227:0 228:0 229:0 230:0 231:0 232:0 233:0 234:0 235:0 236:0 237:0 238:0 239:0 240:0 241:0 242:0 243:0 244:0 245:0 246:0 247:0 248:1 249:0 
0.47741251476775903 1:1 2:0 3:1 4:0 5:1 6:1 7:0 8:0 9:0 10:1 11:0 12:0 13:0 14:1 15:0 16:0 17:0 18:0 19:0 20:0 21:0 22:1 23:0 24:0 25:0 26:0 27:0 28:0 29:0 30:0 31:0 32:0 33:0 34:0 35:0 36:0 37:1 38:1 39:1 40:1 41:1 42:1 43:1 44:1 45:0 46:1 47:1 48:1 49:1 50:1 51:1 52:0 53:1 54:1 55:1 56:1 57:1 58:1 59:1 60:1 61:1 62:1 63:1 64:1 65:1 66:0 67:0 68:0 69:1 70:0 71:1 72:1 73:1 74:1 75:0 76:0 77:1 78:0 79:0 80:0 81:0 82:1 83:1 84:1 85:1 86:1 87:1 88:1 89:1 90:1 91:1 92:1 93:1 94:1 95:1 96:1 97:1 98:1 99:1 100:1 101:1 102:1 103:0 104:1 105:1 106:1 107:1 108:1 109:1 110:1 111:1 112:1 113:1 114:1 115:1 116:0 117:1 118:1 119:1 120:0 121:1 122:1 123:0 124:0 125:0 126:0 127:0 128:0 129:0 130:0 131:0 132:0 133:0 134:0 135:0 136:0 137:0 138:0 139:0 140:0 141:0 142:0 143:0 144:0 145:0 146:0 147:0 148:0 149:0 150:0 151:0 152:0 153:0 154:0 155:0 156:0 157:0 158:0 159:0 160:0 161:0 162:0 163:0 164:0 165:0 166:0 167:0 168:0 169:0 170:0 171:0 172:0 173:0 174:0 175:0 176:0 177:0 178:0 179:0 180:0 181:0 182:0 183:0 184:0 185:0 186:0 187:0 188:0 189:0 190:0 191:0 192:0 193:0 194:0 195:0 196:0 197:0 198:0 199:0 200:0 201:0 202:0 203:0 204:0 205:0 206:0 207:0 208:0 209:0 210:0 211:0 212:0 213:0 214:0 215:0 216:0 217:0 218:0 219:0 220:0 221:0 222:0 223:0 224:0 225:0 226:0 227:0 228:0 229:0 230:0 231:0 232:0 233:0 234:0 235:0 236:0 237:0 238:0 239:0 240:0 241:0 242:0 243:0 244:0 245:0 246:0 247:0 248:1 249:1 
1 1:1 2:1 3:1 4:1 5:1 6:1 7:1 8:1 9:1 10:1 11:1 12:1 13:1 14:1 15:1 16:1 17:1 18:0 19:1 20:0 21:1 22:1 23:0 24:1 25:1 26:1 27:1 28:0 29:0 30:0 31:0 32:1 33:1 34:1 35:0 36:1 37:1 38:1 39:1 40:1 41:1 42:1 43:1 44:1 45:0 46:0 47:0 48:1 49:1 50:1 51:1 52:0 53:1 54:1 55:1 56:1 57:1 58:1 59:1 60:0 61:1 62:1 63:1 64:1 65:1 66:1 67:1 68:1 69:1 70:1 71:1 72:0 73:1 74:1 75:1 76:1 77:1 78:1 79:1 80:1 81:1 82:1 83:1 84:1 85:1 86:1 87:0 88:1 89:1 90:0 91:0 92:1 93:1 94:0 95:1 96:0 97:1 98:1 99:0 100:0 101:1 102:0 103:0 104:1 105:0 106:1 107:1 108:1 109:0 110:1 111:1 112:0 113:0 114:1 115:1 116:0 117:1 118:0 119:1 120:0 121:1 122:1 123:1 124:1 125:1 126:1 127:1 128:1 129:1 130:1 131:0 132:0 133:1 134:0 135:1 136:0 137:0 138:0 139:0 140:0 141:0 142:0 143:0 144:0 145:0 146:0 147:0 148:1 149:1 150:0 151:0 152:0 153:0 154:0 155:0 156:0 157:0 158:0 159:0 160:0 161:0 162:0 163:0 164:0 165:0 166:0 167:0 168:0 169:0 170:1 171:0 172:0 173:0 174:0 175:0 176:0 177:0 178:0 179:0 180:0 181:0 182:0 183:0 184:0 185:0 186:0 187:0 188:1 189:1 190:1 191:0 192:0 193:0 194:0 195:0 196:0 197:0 198:0 199:0 200:0 201:0 202:0 203:0 204:0 205:0 206:0 207:0 208:0 209:0 210:0 211:0 212:0 213:0 214:0 215:0 216:0 217:0 218:0 219:0 220:0 221:0 222:0 223:0 224:0 225:0 226:0 227:0 228:0 229:0 230:0 231:0 232:0 233:0 234:0 235:0 236:0 237:0 238:0 239:0 240:0 241:0 242:0 243:0 244:0 245:0 246:0 247:0 248:1 249:1 
1 1:1 2:1 3:0 4:0 5:1 6:1 7:1 8:0 9:0 10:1 11:0 12:0 13:0 14:0 15:0 16:0 17:0 18:0 19:0 20:0 21:0 22:1 23:0 24:1 25:0 26:1 27:1 28:1 29:1 30:1 31:1 32:1 33:1 34:0 35:1 36:1 37:1 38:1 39:1 40:1 41:1 42:1 43:1 44:1 45:1 46:1 47:1 48:1 49:1 50:1 51:1 52:0 53:0 54:0 55:1 56:1 57:1 58:0 59:1 60:0 61:1 62:0 63:0 64:1 65:1 66:1 67:1 68:1 69:1 70:1 71:1 72:1 73:1 74:1 75:1 76:1 77:1 78:0 79:0 80:0 81:0 82:1 83:1 84:1 85:1 86:1 87:0 88:0 89:1 90:1 91:1 92:1 93:1 94:1 95:1 96:1 97:1 98:1 99:1 100:1 101:1 102:1 103:0 104:0 105:0 106:0 107:0 108:1 109:1 110:1 111:1 112:0 113:1 114:1 115:1 116:0 117:1 118:0 119:0 120:1 121:0 122:1 123:1 124:1 125:1 126:1 127:1 128:1 129:1 130:1 131:1 132:1 133:1 134:1 135:1 136:1 137:1 138:1 139:0 140:0 141:1 142:0 143:1 144:1 145:1 146:1 147:1 148:1 149:0 150:1 151:1 152:1 153:1 154:1 155:0 156:1 157:1 158:0 159:1 160:1 161:1 162:1 163:1 164:0 165:0 166:1 167:0 168:1 169:1 170:1 171:1 172:1 173:1 174:1 175:0 176:0 177:0 178:1 179:0 180:1 181:0 182:1 183:1 184:1 185:1 186:1 187:1 188:1 189:0 190:0 191:1 192:1 193:1 194:1 195:1 196:1 197:1 198:1 199:1 200:1 201:1 202:1 203:1 204:0 205:1 206:1 207:0 208:1 209:1 210:0 211:1 212:1 213:1 214:1 215:0 216:0 217:0 218:1 219:0 220:0 221:1 222:1 223:1 224:1 225:1 226:1 227:1 228:1 229:1 230:1 231:1 232:1 233:1 234:0 235:1 236:0 237:1 238:0 239:1 240:1 241:1 242:0 243:0 244:0 245:0 246:0 247:0 248:1 249:1 
0.46874904028065062 1:1 2:1 3:1 4:0 5:0 6:1 7:1 8:1 9:0 10:0 11:1 12:0 13:1 14:1 15:0 16:0 17:0 18:0 19:0 20:0 21:0 22:0 23:0 24:0 25:0 26:0 27:0 28:0 29:0 30:0 31:0 32:0 33:0 34:0 35:0 36:0 37:1 38:0 39:1 40:0 41:1 42:1 43:1 44:1 45:1 46:0 47:0 48:1 49:1 50:1 51:1 52:0 53:1 54:1 55:1 56:1 57:1 58:0 59:1 60:0 61:1 62:0 63:0 64:1 65:1 66:1 67:0 68:0 69:1 70:1 71:0 72:0 73:1 74:1 75:1 76:0 77:0 78:1 79:0 80:0 81:0 82:1 83:1 84:1 85:1 86:1 87:0 88:1 89:1 90:0 91:0 92:1 93:0 94:0 95:0 96:0 97:1 98:1 99:0 100:0 101:1 102:0 103:0 104:0 105:0 106:0 107:0 108:1 109:0 110:1 111:0 112:0 113:0 114:1 115:1 116:0 117:1 118:0 119:1 120:0 121:0 122:0 123:0 124:0 125:0 126:0 127:0 128:0 129:0 130:0 131:0 132:0 133:0 134:0 135:0 136:0 137:0 138:0 139:0 140:0 141:0 142:0 143:0 144:0 145:0 146:0 147:0 148:0 149:0 150:0 151:0 152:0 153:0 154:0 155:0 156:0 157:0 158:0 159:0 160:0 161:0 162:0 163:0 164:0 165:0 166:0 167:0 168:0 169:0 170:0 171:0 172:0 173:0 174:0 175:0 176:0 177:0 178:0 179:0 180:0 181:0 182:0 183:0 184:0 185:0 186:0 187:0 188:0 189:0 190:0 191:0 192:0 193:0 194:0 195:0 196:0 197:0 198:0 199:0 200:0 201:0 202:0 203:0 204:0 205:0 206:0 207:0 208:0 209:0 210:0 211:0 212:0 213:0 214:0 215:0 216:0 217:0 218:0 219:0 220:0 221:0 222:0 223:0 224:0 225:0 226:0 227:0 228:0 229:0 230:0 231:0 232:0 233:0 234:0 235:0 236:0 237:0 238:0 239:0 240:0 241:0 242:0 243:0 244:0 245:0 246:0 247:0 248:1 249:0 
0.12584311266299467 1:1 2:0 3:1 4:0 5:1 6:1 7:0 8:1 9:0 10:1 11:0 12:0 13:0 14:1 15:0 16:0 17:0 18:0 19:0 20:0 21:0 22:1 23:0 24:0 25:0 26:0 27:0 28:0 29:0 30:0 31:0 32:0 33:0 34:0 35:0 36:0 37:1 38:1 39:1 40:1 41:1 42:1 43:1 44:1 45:0 46:1 47:1 48:1 49:1 50:1 51:1 52:1 53:1 54:1 55:1 56:1 57:1 58:1 59:1 60:1 61:1 62:1 63:1 64:1 65:1 66:0 67:0 68:0 69:1 70:0 71:1 72:1 73:1 74:1 75:0 76:0 77:1 78:0 79:0 80:0 81:0 82:1 83:1 84:1 85:1 86:1 87:1 88:1 89:1 90:1 91:1 92:1 93:1 94:1 95:1 96:1 97:1 98:1 99:1 100:1 101:1 102:1 103:0 104:1 105:0 106:1 107:1 108:1 109:1 110:1 111:1 112:1 113:1 114:1 115:1 116:1 117:1 118:0 119:1 120:1 121:1 122:1 123:0 124:0 125:0 126:0 127:0 128:0 129:0 130:0 131:0 132:0 133:0 134:0 135:0 136:0 137:0 138:0 139:0 140:0 141:0 142:0 143:0 144:0 145:0 146:0 147:0 148:0 149:0 150:0 151:0 152:0 153:0 154:0 155:0 156:0 157:0 158:0 159:0 160:0 161:0 162:0 163:0 164:0 165:0 166:0 167:0 168:0 169:0 170:0 171:0 172:0 173:0 174:0 175:0 176:0 177:0 178:0 179:0 180:0 181:0 182:0 183:0 184:0 185:0 186:0 187:0 188:0 189:0 190:0 191:0 192:0 193:0 194:0 195:0 196:0 197:0 198:0 199:0 200:0 201:0 202:0 203:0 204:0 205:0 206:0 207:0 208:0 209:0 210:0 211:0 212:0 213:0 214:0 215:0 216:0 217:0 218:0 219:0 220:0 221:0 222:0 223:0 224:0 225:0 226:0 227:0 228:0 229:0 230:0 231:0 232:0 233:0 234:0 235:0 236:0 237:0 238:0 239:0 240:0 241:0 242:0 243:0 244:0 245:0 246:0 247:0 248:1 249:1 
0.05319386944822059 1:1 2:0 3:1 4:0 5:1 6:1 7:0 8:0 9:0 10:1 11:0 12:0 13:0 14:1 15:0 16:0 17:0 18:0 19:0 20:0 21:0 22:1 23:0 24:1 25:1 26:0 27:0 28:0 29:0 30:0 31:0 32:0 33:0 34:0 35:0 36:0 37:1 38:1 39:1 40:1 41:1 42:1 43:1 44:1 45:0 46:1 47:1 48:1 49:1 50:1 51:1 52:0 53:1 54:1 55:1 56:1 57:1 58:1 59:1 60:1 61:1 62:1 63:1 64:1 65:1 66:0 67:0 68:0 69:1 70:0 71:1 72:1 73:1 74:1 75:0 76:0 77:1 78:0 79:0 80:0 81:0 82:1 83:1 84:1 85:1 86:1 87:1 88:1 89:1 90:1 91:1 92:1 93:1 94:1 95:1 96:1 97:1 98:1 99:1 100:1 101:1 102:1 103:0 104:1 105:0 106:1 107:1 108:1 109:1 110:1 111:1 112:1 113:1 114:1 115:1 116:0 117:1 118:0 119:1 120:0 121:1 122:1 123:0 124:0 125:1 126:0 127:0 128:0 129:0 130:0 131:0 132:0 133:0 134:0 135:0 136:0 137:0 138:0 139:0 140:0 141:0 142:0 143:0 144:0 145:0 146:0 147:0 148:0 149:0 150:0 151:0 152:0 153:0 154:0 155:0 156:0 157:0 158:0 159:0 160:0 161:0 162:0 163:0 164:0 165:0 166:0 167:0 168:0 169:0 170:0 171:0 172:0 173:0 174:0 175:0 176:0 177:0 178:0 179:0 180:0 181:0 182:0 183:0 184:0 185:0 186:0 187:0 188:0 189:0 190:0 191:0 192:0 193:0 194:0 195:0 196:0 197:0 198:0 199:0 200:0 201:0 202:0 203:0 204:0 205:0 206:0 207:0 208:0 209:0 210:0 211:0 212:0 213:0 214:0 215:0 216:0 217:0 218:0 219:0 220:0 221:0 222:0 223:0 224:0 225:0 226:0 227:0 228:0 229:0 230:0 231:0 232:0 233:0 234:0 235:0 236:0 237:0 238:0 239:0 240:0 241:0 242:0 243:0 244:0 245:0 246:0 247:0 248:1 249:1 
1 1:1 2:1 3:1 4:0 5:1 6:1 7:1 8:0 9:0 10:1 11:1 12:0 13:1 14:1 15:1 16:1 17:0 18:0 19:0 20:0 21:0 22:1 23:0 24:1 25:1 26:1 27:1 28:1 29:1 30:1 31:1 32:1 33:1 34:1 35:1 36:1 37:1 38:1 39:1 40:1 41:1 42:1 43:1 44:1 45:0 46:1 47:0 48:1 49:1 50:1 51:1 52:0 53:1 54:1 55:1 56:1 57:1 58:1 59:1 60:1 61:1 62:1 63:1 64:1 65:1 66:1 67:1 68:1 69:1 70:1 71:1 72:1 73:1 74:1 75:1 76:1 77:1 78:1 79:1 80:1 81:1 82:1 83:1 84:1 85:1 86:1 87:1 88:1 89:1 90:1 91:1 92:1 93:1 94:1 95:1 96:1 97:1 98:1 99:1 100:1 101:1 102:1 103:0 104:1 105:0 106:1 107:0 108:1 109:1 110:1 111:1 112:1 113:1 114:1 115:1 116:0 117:1 118:1 119:1 120:0 121:1 122:1 123:1 124:1 125:1 126:1 127:1 128:1 129:1 130:1 131:1 132:1 133:1 134:1 135:1 136:1 137:1 138:1 139:0 140:0 141:1 142:0 143:1 144:1 145:1 146:1 147:1 148:1 149:1 150:1 151:1 152:1 153:1 154:1 155:0 156:1 157:1 158:0 159:0 160:1 161:1 162:1 163:1 164:0 165:1 166:1 167:0 168:1 169:1 170:1 171:1 172:1 173:1 174:1 175:0 176:0 177:1 178:1 179:0 180:1 181:0 182:1 183:1 184:1 185:1 186:1 187:1 188:1 189:1 190:1 191:1 192:1 193:1 194:1 195:1 196:1 197:1 198:1 199:1 200:1 201:1 202:1 203:1 204:0 205:1 206:1 207:0 208:1 209:1 210:0 211:1 212:1 213:1 214:1 215:0 216:0 217:0 218:0 219:0 220:0 221:1 222:1 223:1 224:1 225:1 226:1 227:1 228:1 229:1 230:1 231:1 232:1 233:1 234:0 235:1 236:0 237:1 238:0 239:1 240:1 241:1 242:0 243:0 244:1 245:0 246:0 247:0 248:1 249:1 
0.39847884449142185 1:1 2:0 3:1 4:1 5:0 6:1 7:0 8:1 9:1 10:0 11:1 12:1 13:1 14:1 15:1 16:1 17:1 18:1 19:1 20:1 21:1 22:0 23:0 24:0 25:0 26:0 27:0 28:0 29:0 30:0 31:0 32:0 33:0 34:0 35:0 36:0 37:1 38:0 39:1 40:0 41:1 42:1 43:1 44:1 45:0 46:0 47:0 48:1 49:1 50:1 51:1 52:0 53:0 54:1 55:1 56:1 57:1 58:0 59:1 60:0 61:1 62:0 63:0 64:1 65:1 66:0 67:0 68:0 69:1 70:0 71:0 72:0 73:1 74:1 75:0 76:0 77:0 78:1 79:0 80:0 81:0 82:1 83:1 84:1 85:1 86:1 87:0 88:1 89:1 90:0 91:0 92:1 93:0 94:0 95:0 96:0 97:1 98:1 99:0 100:0 101:1 102:0 103:0 104:0 105:0 106:0 107:0 108:1 109:0 110:1 111:0 112:0 113:0 114:1 115:1 116:0 117:1 118:0 119:0 120:0 121:0 122:0 123:0 124:0 125:0 126:0 127:0 128:0 129:0 130:0 131:0 132:0 133:0 134:0 135:0 136:0 137:0 138:0 139:0 140:0 141:0 142:0 143:0 144:0 145:0 146:0 147:0 148:0 149:0 150:0 151:0 152:0 153:0 154:0 155:0 156:0 157:0 158:0 159:0 160:0 161:0 162:0 163:0 164:0 165:0 166:0 167:0 168:0 169:0 170:0 171:0 172:0 173:0 174:0 175:0 176:0 177:0 178:0 179:0 180:0 181:0 182:0 183:0 184:0 185:0 186:0 187:0 188:0 189:0 190:0 191:0 192:0 193:0 194:0 195:0 196:0 197:0 198:0 199:0 200:0 201:0 202:0 203:0 204:0 205:0 206:0 207:0 208:0 209:0 210:0 211:0 212:0 213:0 214:0 215:0 216:0 217:0 218:0 219:0 220:0 221:0 222:0 223:0 224:0 225:0 226:0 227:0 228:0 229:0 230:0 231:0 232:0 233:0 234:0 235:0 236:0 237:0 238:0 239:0 240:0 241:0 242:0 243:0 244:0 245:0 246:0 247:0 248:1 249:0 
0.30310821590396608 1:1 2:0 3:0 4:0 5:1 6:1 7:0 8:0 9:0 10:1 11:0 12:0 13:0 14:0 15:0 16:0 17:0 18:0 19:0 20:0 21:0 22:1 23:1 24:1 25:1 26:0 27:0 28:1 29:0 30:0 31:1 32:1 33:0 34:1 35:1 36:1 37:1 38:1 39:1 40:1 41:1 42:1 43:1 44:1 45:0 46:1 47:1 48:1 49:1 50:1 51:1 52:1 53:0 54:0 55:1 56:1 57:1 58:1 59:1 60:0 61:1 62:1 63:1 64:1 65:1 66:0 67:0 68:0 69:1 70:0 71:1 72:1 73:1 74:1 75:0 76:0 77:1 78:0 79:0 80:0 81:0 82:1 83:1 84:1 85:1 86:1 87:0 88:0 89:1 90:1 91:1 92:1 93:1 94:0 95:1 96:0 97:1 98:1 99:1 100:1 101:1 102:1 103:1 104:1 105:0 106:1 107:1 108:1 109:0 110:1 111:1 112:0 113:0 114:1 115:1 116:1 117:1 118:0 119:0 120:1 121:1 122:1 123:0 124:0 125:1 126:0 127:0 128:1 129:0 130:0 131:0 132:0 133:0 134:0 135:0 136:0 137:0 138:0 139:0 140:0 141:0 142:0 143:0 144:0 145:0 146:0 147:0 148:0 149:0 150:0 151:0 152:0 153:0 154:0 155:0 156:0 157:0 158:0 159:0 160:0 161:0 162:0 163:0 164:0 165:0 166:0 167:0 168:0 169:1 170:1 171:0 172:0 173:0 174:0 175:0 176:0 177:0 178:0 179:0 180:0 181:0 182:0 183:0 184:0 185:0 186:0 187:0 188:0 189:0 190:0 191:1 192:0 193:0 194:0 195:0 196:0 197:0 198:1 199:0 200:1 201:0 202:0 203:0 204:0 205:0 206:0 207:0 208:0 209:1 210:0 211:0 212:1 213:0 214:0 215:0 216:0 217:1 218:1 219:0 220:0 221:1 222:0 223:0 224:1 225:0 226:0 227:0 228:0 229:0 230:1 231:0 232:0 233:0 234:0 235:0 236:0 237:0 238:0 239:1 240:0 241:0 242:0 243:0 244:0 245:1 246:0 247:0 248:1 249:1 
0.075673421991538342 1:1 2:1 3:1 4:1 5:1 6:1 7:1 8:1 9:1 10:1 11:1 12:1 13:1 14:1 15:1 16:1 17:1 18:0 19:1 20:1 21:1 22:1 23:1 24:1 25:1 26:1 27:1 28:0 29:0 30:0 31:0 32:1 33:1 34:1 35:0 36:1 37:0 38:0 39:0 40:0 41:0 42:0 43:0 44:0 45:0 46:0 47:0 48:0 49:0 50:0 51:0 52:0 53:0 54:0 55:0 56:0 57:0 58:0 59:0 60:0 61:0 62:0 63:0 64:0 65:0 66:1 67:1 68:1 69:1 70:1 71:1 72:0 73:1 74:0 75:1 76:1 77:1 78:1 79:0 80:0 81:1 82:0 83:0 84:0 85:0 86:0 87:0 88:0 89:0 90:0 91:0 92:0 93:0 94:0 95:0 96:0 97:0 98:0 99:0 100:0 101:0 102:0 103:0 104:0 105:0 106:0 107:0 108:0 109:0 110:0 111:0 112:0 113:0 114:0 115:0 116:0 117:0 118:0 119:0 120:0 121:0 122:1 123:1 124:1 125:1 126:1 127:1 128:1 129:1 130:0 131:0 132:0 133:1 134:0 135:1 136:0 137:0 138:0 139:0 140:0 141:0 142:0 143:0 144:0 145:0 146:0 147:0 148:0 149:1 150:0 151:0 152:0 153:0 154:0 155:0 156:0 157:0 158:0 159:0 160:0 161:0 162:0 163:0 164:0 165:0 166:0 167:0 168:0 169:0 170:1 171:0 172:0 173:0 174:0 175:0 176:0 177:0 178:0 179:0 180:0 181:0 182:0 183:0 184:0 185:0 186:0 187:0 188:1 189:1 190:0 191:0 192:0 193:0 194:0 195:0 196:0 197:0 198:0 199:0 200:0 201:0 202:0 203:0 204:0 205:0 206:0 207:0 208:0 209:0 210:0 211:0 212:0 213:0 214:0 215:0 216:0 217:0 218:0 219:0 220:0 221:0 222:0 223:0 224:0 225:0 226:0 227:0 228:0 229:0 230:0 231:0 232:0 233:0 234:0 235:0 236:0 237:0 238:0 239:0 240:0 241:0 242:0 243:0 244:0 245:0 246:0 247:0 248:0 249:0 
1 1:1 2:1 3:0 4:0 5:1 6:1 7:1 8:0 9:0 10:1 11:1 12:0 13:1 14:0 15:0 16:0 17:0 18:0 19:0 20:0 21:0 22:1 23:0 24:1 25:1 26:0 27:0 28:1 29:1 30:1 31:1 32:1 33:0 34:1 35:1 36:1 37:1 38:1 39:1 40:1 41:1 42:1 43:1 44:1 45:1 46:1 47:0 48:1 49:1 50:1 51:1 52:0 53:0 54:1 55:1 56:1 57:1 58:0 59:1 60:0 61:1 62:0 63:0 64:1 65:1 66:1 67:0 68:0 69:1 70:1 71:1 72:1 73:1 74:1 75:1 76:0 77:1 78:1 79:1 80:0 81:1 82:1 83:1 84:1 85:1 86:1 87:0 88:1 89:1 90:1 91:1 92:1 93:1 94:1 95:1 96:1 97:1 98:1 99:1 100:1 101:1 102:1 103:0 104:0 105:0 106:0 107:0 108:1 109:1 110:1 111:1 112:0 113:1 114:1 115:1 116:0 117:1 118:0 119:0 120:0 121:0 122:1 123:0 124:0 125:1 126:0 127:0 128:1 129:0 130:0 131:0 132:0 133:1 134:1 135:1 136:1 137:1 138:1 139:0 140:0 141:1 142:0 143:1 144:1 145:1 146:1 147:0 148:0 149:1 150:1 151:1 152:1 153:1 154:1 155:0 156:1 157:1 158:0 159:0 160:1 161:1 162:1 163:1 164:0 165:0 166:1 167:0 168:1 169:1 170:1 171:1 172:1 173:1 174:1 175:0 176:0 177:0 178:0 179:0 180:1 181:0 182:0 183:0 184:1 185:0 186:0 187:0 188:0 189:1 190:0 191:1 192:0 193:0 194:0 195:0 196:0 197:0 198:1 199:1 200:1 201:0 202:0 203:0 204:0 205:0 206:0 207:0 208:0 209:1 210:0 211:1 212:1 213:0 214:0 215:0 216:0 217:0 218:0 219:0 220:0 221:1 222:0 223:0 224:1 225:0 226:0 227:0 228:0 229:1 230:1 231:0 232:0 233:0 234:0 235:0 236:0 237:1 238:0 239:1 240:0 241:0 242:0 243:0 244:0 245:0 246:0 247:0 248:1 249:1 
1 1:1 2:1 3:1 4:0 5:1 6:1 7:0 8:1 9:0 10:1 11:1 12:1 13:1 14:1 15:1 16:1 17:0 18:0 19:0 20:0 21:1 22:1 23:0 24:1 25:0 26:0 27:0 28:0 29:0 30:0 31:0 32:1 33:0 34:0 35:1 36:1 37:1 38:0 39:1 40:0 41:1 42:1 43:1 44:1 45:0 46:1 47:1 48:1 49:1 50:1 51:1 52:1 53:1 54:1 55:1 56:1 57:1 58:1 59:1 60:1 61:1 62:1 63:1 64:1 65:1 66:1 67:0 68:0 69:1 70:1 71:1 72:0 73:1 74:1 75:0 76:0 77:1 78:1 79:0 80:0 81:1 82:1 83:1 84:1 85:1 86:1 87:1 88:1 89:1 90:1 91:0 92:1 93:0 94:0 95:0 96:0 97:1 98:1 99:1 100:0 101:1 102:1 103:0 104:1 105:0 106:1 107:0 108:1 109:0 110:1 111:0 112:0 113:0 114:1 115:1 116:1 117:1 118:0 119:1 120:1 121:1 122:1 123:0 124:0 125:1 126:0 127:0 128:1 129:0 130:0 131:0 132:0 133:1 134:0 135:1 136:0 137:0 138:0 139:0 140:0 141:0 142:0 143:0 144:0 145:0 146:0 147:0 148:0 149:1 150:1 151:0 152:0 153:1 154:0 155:0 156:0 157:1 158:0 159:1 160:0 161:0 162:0 163:0 164:0 165:0 166:0 167:0 168:0 169:0 170:1 171:0 172:0 173:0 174:0 175:0 176:0 177:0 178:0 179:0 180:0 181:0 182:0 183:0 184:0 185:0 186:0 187:0 188:0 189:1 190:0 191:1 192:0 193:0 194:0 195:0 196:0 197:0 198:0 199:0 200:1 201:0 202:0 203:0 204:0 205:0 206:0 207:0 208:0 209:0 210:0 211:0 212:1 213:0 214:0 215:0 216:0 217:0 218:1 219:0 220:0 221:0 222:0 223:0 224:0 225:0 226:0 227:0 228:0 229:0 230:0 231:0 232:0 233:0 234:0 235:0 236:0 237:0 238:0 239:0 240:0 241:0 242:0 243:0 244:0 245:0 246:0 247:0 248:1 249:0 
0.64926330544628985 1:1 2:0 3:1 4:0 5:1 6:1 7:0 8:0 9:0 10:1 11:0 12:0 13:0 14:1 15:0 16:0 17:0 18:0 19:0 20:0 21:0 22:1 23:0 24:1 25:1 26:0 27:0 28:0 29:0 30:0 31:0 32:1 33:0 34:1 35:0 36:1 37:1 38:1 39:1 40:1 41:1 42:1 43:1 44:1 45:0 46:1 47:1 48:1 49:1 50:1 51:1 52:0 53:1 54:1 55:1 56:1 57:1 58:1 59:1 60:1 61:1 62:1 63:1 64:1 65:1 66:0 67:0 68:0 69:1 70:0 71:1 72:1 73:1 74:1 75:0 76:0 77:1 78:0 79:0 80:0 81:0 82:1 83:1 84:1 85:1 86:1 87:1 88:1 89:1 90:1 91:1 92:1 93:1 94:1 95:1 96:1 97:1 98:1 99:1 100:1 101:1 102:1 103:0 104:1 105:0 106:1 107:1 108:1 109:1 110:1 111:1 112:1 113:1 114:1 115:1 116:0 117:1 118:0 119:1 120:0 121:1 122:1 123:0 124:0 125:1 126:0 127:0 128:1 129:0 130:0 131:0 132:0 133:1 134:0 135:1 136:0 137:0 138:0 139:0 140:0 141:0 142:0 143:0 144:0 145:0 146:0 147:0 148:0 149:0 150:0 151:0 152:0 153:0 154:0 155:0 156:0 157:0 158:0 159:0 160:0 161:0 162:0 163:0 164:0 165:0 166:0 167:0 168:0 169:0 170:1 171:0 172:0 173:0 174:0 175:0 176:0 177:0 178:0 179:0 180:0 181:0 182:0 183:0 184:0 185:0 186:0 187:0 188:0 189:0 190:0 191:0 192:0 193:0 194:0 195:0 196:0 197:0 198:0 199:0 200:0 201:0 202:0 203:0 204:0 205:0 206:0 207:0 208:0 209:0 210:0 211:0 212:0 213:0 214:0 215:0 216:0 217:0 218:0 219:0 220:0 221:0 222:0 223:0 224:0 225:0 226:0 227:0 228:0 229:0 230:0 231:0 232:0 233:0 234:0 235:0 236:0 237:0 238:0 239:0 240:0 241:0 242:0 243:0 244:0 245:0 246:0 247:0 248:1 249:1 
0.12741158989763174 1:1 2:0 3:1 4:0 5:0 6:0 7:0 8:0 9:0 10:0 11:0 12:0 13:0 14:1 15:1 16:1 17:1 18:0 19:0 20:0 21:0 22:0 23:0 24:0 25:0 26:0 27:0 28:0 29:0 30:0 31:0 32:0 33:0 34:0 35:0 36:0 37:0 38:0 39:0 40:0 41:0 42:0 43:0 44:0 45:0 46:0 47:0 48:0 49:0 50:0 51:0 52:0 53:0 54:0 55:0 56:0 57:0 58:0 59:0 60:0 61:0 62:0 63:0 64:0 65:0 66:0 67:0 68:0 69:1 70:0 71:0 72:0 73:0 74:0 75:0 76:0 77:0 78:0 79:0 80:0 81:0 82:0 83:0 84:0 85:0 86:0 87:0 88:0 89:0 90:0 91:0 92:0 93:0 94:0 95:0 96:0 97:0 98:0 99:0 100:0 101:0 102:0 103:0 104:0 105:0 106:0 107:0 108:0 109:0 110:0 111:0 112:0 113:0 114:0 115:0 116:0 117:0 118:0 119:0 120:0 121:0 122:0 123:0 124:0 125:0 126:0 127:0 128:0 129:0 130:0 131:0 132:0 133:0 134:0 135:0 136:0 137:0 138:0 139:0 140:0 141:0 142:0 143:0 144:0 145:0 146:0 147:0 148:0 149:0 150:0 151:0 152:0 153:0 154:0 155:0 156:0 157:0 158:0 159:0 160:0 161:0 162:0 163:0 164:0 165:0 166:0 167:0 168:0 169:0 170:0 171:0 172:0 173:0 174:0 175:0 176:0 177:0 178:0 179:0 180:0 181:0 182:0 183:0 184:0 185:0 186:0 187:0 188:0 189:0 190:0 191:0 192:0 193:0 194:0 195:0 196:0 197:0 198:0 199:0 200:0 201:0 202:0 203:0 204:0 205:0 206:0 207:0 208:0 209:0 210:0 211:0 212:0 213:0 214:0 215:0 216:0 217:0 218:0 219:0 220:0 221:0 222:0 223:0 224:0 225:0 226:0 227:0 228:0 229:0 230:0 231:0 232:0 233:0 234:0 235:0 236:0 237:0 238:0 239:0 240:0 241:0 242:0 243:0 244:0 245:0 246:0 247:0 248:0 249:0 
0.73534835923766462 1:1 2:1 3:0 4:0 5:1 6:1 7:0 8:0 9:0 10:0 11:0 12:0 13:0 14:0 15:0 16:0 17:0 18:0 19:0 20:0 21:0 22:1 23:1 24:1 25:1 26:1 27:1 28:1 29:1 30:1 31:1 32:1 33:1 34:1 35:1 36:0 37:1 38:1 39:1 40:1 41:1 42:1 43:1 44:1 45:1 46:1 47:0 48:1 49:1 50:1 51:1 52:0 53:1 54:0 55:1 56:1 57:1 58:1 59:1 60:0 61:1 62:1 63:1 64:1 65:1 66:1 67:1 68:1 69:1 70:1 71:1 72:1 73:1 74:1 75:0 76:0 77:0 78:0 79:0 80:0 81:0 82:1 83:1 84:1 85:1 86:1 87:0 88:0 89:1 90:1 91:1 92:1 93:1 94:1 95:1 96:1 97:1 98:1 99:1 100:1 101:1 102:1 103:0 104:1 105:0 106:1 107:1 108:1 109:1 110:1 111:1 112:1 113:1 114:1 115:1 116:0 117:1 118:0 119:1 120:1 121:1 122:1 123:1 124:1 125:1 126:1 127:1 128:1 129:1 130:1 131:1 132:1 133:1 134:1 135:0 136:0 137:0 138:0 139:0 140:0 141:0 142:0 143:0 144:0 145:0 146:0 147:0 148:0 149:0 150:1 151:1 152:1 153:1 154:1 155:0 156:1 157:1 158:0 159:1 160:1 161:1 162:1 163:1 164:1 165:1 166:1 167:0 168:1 169:1 170:0 171:0 172:0 173:0 174:0 175:0 176:0 177:0 178:0 179:0 180:0 181:0 182:0 183:0 184:0 185:0 186:0 187:0 188:0 189:0 190:0 191:1 192:1 193:1 194:1 195:1 196:1 197:1 198:1 199:1 200:1 201:1 202:1 203:1 204:0 205:1 206:1 207:0 208:1 209:1 210:0 211:1 212:1 213:1 214:1 215:0 216:0 217:0 218:1 219:1 220:1 221:1 222:1 223:1 224:1 225:1 226:1 227:1 228:1 229:1 230:1 231:1 232:1 233:1 234:0 235:1 236:0 237:1 238:0 239:1 240:1 241:1 242:1 243:1 244:1 245:1 246:1 247:1 248:1 249:1 
0.76879199302272994 1:1 2:1 3:1 4:1 5:1 6:1 7:1 8:1 9:1 10:1 11:1 12:1 13:1 14:1 15:1 16:1 17:1 18:0 19:1 20:1 21:1 22:1 23:1 24:1 25:1 26:1 27:1 28:1 29:1 30:1 31:1 32:1 33:1 34:1 35:1 36:1 37:1 38:1 39:1 40:1 41:0 42:0 43:0 44:1 45:1 46:1 47:1 48:0 49:0 50:0 51:0 52:0 53:0 54:0 55:0 56:0 57:0 58:0 59:0 60:0 61:0 62:0 63:0 64:0 65:0 66:1 67:1 68:1 69:1 70:1 71:1 72:0 73:1 74:1 75:1 76:1 77:1 78:1 79:1 80:0 81:1 82:0 83:0 84:0 85:0 86:0 87:0 88:0 89:1 90:1 91:0 92:0 93:0 94:0 95:1 96:0 97:0 98:0 99:0 100:0 101:0 102:0 103:0 104:0 105:0 106:0 107:0 108:0 109:0 110:0 111:0 112:0 113:0 114:0 115:0 116:0 117:0 118:0 119:0 120:0 121:0 122:1 123:1 124:1 125:1 126:1 127:1 128:1 129:1 130:0 131:0 132:0 133:0 134:0 135:0 136:0 137:0 138:0 139:0 140:0 141:0 142:0 143:0 144:0 145:0 146:0 147:0 148:0 149:0 150:0 151:0 152:0 153:0 154:0 155:0 156:0 157:0 158:0 159:0 160:1 161:1 162:0 163:0 164:0 165:0 166:0 167:0 168:0 169:0 170:1 171:1 172:1 173:0 174:0 175:0 176:0 177:0 178:0 179:0 180:0 181:0 182:0 183:0 184:0 185:0 186:0 187:0 188:1 189:1 190:0 191:1 192:1 193:0 194:0 195:0 196:0 197:0 198:0 199:0 200:0 201:0 202:0 203:0 204:0 205:0 206:0 207:0 208:0 209:0 210:0 211:0 212:0 213:0 214:0 215:0 216:0 217:0 218:0 219:0 220:0 221:1 222:1 223:0 224:1 225:1 226:0 227:0 228:0 229:0 230:0 231:0 232:0 233:0 234:0 235:0 236:0 237:0 238:0 239:0 240:0 241:0 242:0 243:0 244:0 245:0 246:0 247:0 248:1 249:1 
0.29203013901356345 1:1 2:0 3:0 4:0 5:1 6:1 7:0 8:0 9:0 10:1 11:1 12:0 13:1 14:0 15:0 16:0 17:0 18:0 19:0 20:0 21:0 22:1 23:0 24:1 25:0 26:0 27:0 28:1 29:1 30:1 31:1 32:1 33:0 34:0 35:1 36:1 37:1 38:1 39:1 40:1 41:1 42:1 43:1 44:1 45:0 46:1 47:0 48:1 49:1 50:1 51:1 52:0 53:0 54:1 55:1 56:1 57:1 58:0 59:1 60:0 61:1 62:0 63:0 64:1 65:1 66:0 67:0 68:0 69:1 70:0 71:1 72:1 73:1 74:1 75:0 76:0 77:1 78:1 79:0 80:0 81:1 82:1 83:1 84:1 85:1 86:1 87:0 88:1 89:1 90:1 91:1 92:1 93:1 94:1 95:1 96:1 97:1 98:1 99:1 100:1 101:1 102:1 103:0 104:0 105:0 106:0 107:0 108:1 109:1 110:1 111:1 112:0 113:1 114:1 115:1 116:0 117:1 118:1 119:0 120:0 121:0 122:1 123:0 124:0 125:1 126:0 127:0 128:1 129:0 130:0 131:0 132:0 133:1 134:1 135:1 136:1 137:1 138:1 139:0 140:0 141:0 142:0 143:0 144:0 145:0 146:0 147:0 148:0 149:0 150:1 151:1 152:1 153:1 154:1 155:0 156:1 157:1 158:0 159:0 160:1 161:1 162:1 163:1 164:0 165:0 166:1 167:0 168:1 169:1 170:1 171:0 172:0 173:0 174:0 175:0 176:0 177:0 178:0 179:0 180:0 181:0 182:0 183:0 184:0 185:0 186:0 187:0 188:0 189:0 190:0 191:1 192:0 193:0 194:0 195:0 196:0 197:0 198:1 199:1 200:1 201:0 202:0 203:0 204:0 205:0 206:0 207:0 208:0 209:1 210:1 211:1 212:1 213:0 214:0 215:0 216:0 217:0 218:0 219:0 220:0 221:1 222:0 223:0 224:1 225:0 226:0 227:0 228:0 229:1 230:1 231:0 232:0 233:0 234:0 235:0 236:0 237:1 238:0 239:1 240:0 241:0 242:0 243:0 244:0 245:0 246:0 247:0 248:1 249:1 
1 1:1 2:1 3:1 4:0 5:1 6:1 7:1 8:1 9:0 10:1 11:1 12:1 13:0 14:1 15:0 16:0 17:0 18:0 19:0 20:0 21:0 22:1 23:0 24:1 25:0 26:1 27:1 28:1 29:1 30:1 31:1 32:1 33:1 34:0 35:1 36:1 37:1 38:1 39:1 40:1 41:1 42:1 43:1 44:1 45:1 46:1 47:1 48:1 49:1 50:1 51:1 52:0 53:1 54:1 55:1 56:1 57:1 58:1 59:1 60:1 61:1 62:1 63:1 64:1 65:1 66:1 67:1 68:1 69:1 70:1 71:1 72:1 73:1 74:1 75:1 76:1 77:1 78:1 79:0 80:0 81:0 82:1 83:1 84:1 85:1 86:1 87:1 88:1 89:1 90:1 91:1 92:1 93:1 94:1 95:1 96:1 97:1 98:1 99:1 100:1 101:1 102:1 103:0 104:1 105:0 106:1 107:1 108:1 109:1 110:1 111:1 112:1 113:1 114:1 115:1 116:0 117:1 118:0 119:1 120:0 121:1 122:1 123:1 124:1 125:1 126:1 127:1 128:1 129:1 130:1 131:1 132:1 133:1 134:1 135:1 136:1 137:1 138:1 139:0 140:0 141:1 142:0 143:1 144:1 145:1 146:1 147:1 148:1 149:0 150:1 151:1 152:1 153:1 154:1 155:0 156:1 157:1 158:0 159:0 160:1 161:1 162:1 163:1 164:1 165:1 166:1 167:0 168:1 169:1 170:1 171:1 172:1 173:1 174:1 175:1 176:1 177:1 178:1 179:1 180:1 181:0 182:1 183:1 184:1 185:1 186:1 187:1 188:1 189:0 190:0 191:1 192:1 193:1 194:1 195:1 196:1 197:1 198:1 199:1 200:1 201:1 202:1 203:1 204:0 205:1 206:1 207:0 208:1 209:1 210:0 211:1 212:1 213:1 214:1 215:0 216:0 217:0 218:0 219:0 220:0 221:1 222:1 223:1 224:1 225:1 226:1 227:1 228:1 229:1 230:1 231:1 232:1 233:1 234:0 235:1 236:0 237:1 238:0 239:1 240:1 241:1 242:1 243:1 244:1 245:1 246:1 247:1 248:1 249:1 
1 1:1 2:1 3:1 4:0 5:0 6:1 7:1 8:1 9:0 10:0 11:1 12:0 13:1 14:1 15:0 16:0 17:0 18:0 19:0 20:0 21:0 22:0 23:0 24:0 25:0 26:0 27:0 28:0 29:0 30:0 31:0 32:0 33:0 34:0 35:0 36:0 37:1 38:0 39:1 40:0 41:1 42:1 43:1 44:1 45:1 46:0 47:0 48:1 49:1 50:1 51:1 52:0 53:1 54:1 55:1 56:1 57:1 58:0 59:1 60:0 61:1 62:0 63:0 64:1 65:1 66:1 67:0 68:0 69:1 70:1 71:0 72:0 73:1 74:1 75:1 76:0 77:0 78:1 79:0 80:0 81:0 82:1 83:1 84:1 85:1 86:1 87:0 88:1 89:1 90:0 91:0 92:1 93:0 94:0 95:0 96:0 97:1 98:1 99:0 100:0 101:1 102:0 103:0 104:0 105:0 106:0 107:0 108:1 109:0 110:1 111:0 112:0 113:0 114:1 115:1 116:0 117:1 118:0 119:1 120:0 121:0 122:0 123:0 124:0 125:0 126:0 127:0 128:0 129:0 130:0 131:0 132:0 133:0 134:0 135:0 136:0 137:0 138:0 139:0 140:0 141:0 142:0 143:0 144:0 145:0 146:0 147:0 148:0 149:0 150:0 151:0 152:0 153:0 154:0 155:0 156:0 157:0 158:0 159:0 160:0 161:0 162:0 163:0 164:0 165:0 166:0 167:0 168:0 169:0 170:0 171:0 172:0 173:0 174:0 175:0 176:0 177:0 178:0 179:0 180:0 181:0 182:0 183:0 184:0 185:0 186:0 187:0 188:0 189:0 190:0 191:0 192:0 193:0 194:0 195:0 196:0 197:0 198:0 199:0 200:0 201:0 202:0 203:0 204:0 205:0 206:0 207:0 208:0 209:0 210:0 211:0 212:0 213:0 214:0 215:0 216:0 217:0 218:0 219:0 220:0 221:0 222:0 223:0 224:0 225:0 226:0 227:0 228:0 229:0 230:0 231:0 232:0 233:0 234:0 235:0 236:0 237:0 238:0 239:0 240:0 241:0 242:0 243:0 244:0 245:0 246:0 247:0 248:1 249:0 
0.85199429629176537 1:1 2:1 3:1 4:0 5:0 6:1 7:1 8:1 9:0 10:0 11:1 12:1 13:1 14:1 15:0 16:0 17:0 18:0 19:0 20:0 21:0 22:0 23:0 24:0 25:0 26:0 27:0 28:0 29:0 30:0 31:0 32:0 33:0 34:0 35:0 36:0 37:1 38:0 39:1 40:0 41:1 42:1 43:1 44:1 45:1 46:0 47:0 48:1 49:1 50:1 51:1 52:1 53:1 54:1 55:1 56:1 57:1 58:1 59:1 60:1 61:1 62:1 63:1 64:1 65:1 66:1 67:0 68:0 69:1 70:1 71:0 72:0 73:1 74:1 75:1 76:0 77:0 78:1 79:1 80:0 81:0 82:1 83:1 84:1 85:1 86:1 87:1 88:1 89:1 90:0 91:0 92:1 93:0 94:0 95:0 96:0 97:1 98:1 99:0 100:0 101:1 102:0 103:0 104:1 105:0 106:1 107:0 108:1 109:0 110:1 111:0 112:0 113:0 114:1 115:1 116:1 117:1 118:0 119:1 120:0 121:1 122:0 123:0 124:0 125:0 126:0 127:0 128:0 129:0 130:0 131:0 132:0 133:0 134:0 135:0 136:0 137:0 138:0 139:0 140:0 141:0 142:0 143:0 144:0 145:0 146:0 147:0 148:0 149:0 150:0 151:0 152:0 153:0 154:0 155:0 156:0 157:0 158:0 159:0 160:0 161:0 162:0 163:0 164:0 165:0 166:0 167:0 168:0 169:0 170:0 171:0 172:0 173:0 174:0 175:0 176:0 177:0 178:0 179:0 180:0 181:0 182:0 183:0 184:0 185:0 186:0 187:0 188:0 189:0 190:0 191:0 192:0 193:0 194:0 195:0 196:0 197:0 198:0 199:0 200:0 201:0 202:0 203:0 204:0 205:0 206:0 207:0 208:0 209:0 210:0 211:0 212:0 213:0 214:0 215:0 216:0 217:0 218:0 219:0 220:0 221:0 222:0 223:0 224:0 225:0 226:0 227:0 228:0 229:0 230:0 231:0 232:0 233:0 234:0 235:0 236:0 237:0 238:0 239:0 240:0 241:0 242:0 243:0 244:0 245:0 246:0 247:0 248:1 249:0 
0.44542131173470256 1:1 2:1 3:1 4:1 5:1 6:1 7:1 8:1 9:1 10:1 11:1 12:1 13:1 14:1 15:1 16:1 17:1 18:0 19:1 20:1 21:1 22:1 23:1 24:1 25:1 26:1 27:1 28:1 29:1 30:1 31:1 32:1 33:1 34:1 35:1 36:1 37:1 38:1 39:1 40:1 41:1 42:1 43:1 44:1 45:1 46:1 47:1 48:1 49:1 50:1 51:1 52:0 53:0 54:1 55:1 56:1 57:1 58:0 59:1 60:0 61:1 62:0 63:0 64:1 65:1 66:1 67:1 68:1 69:1 70:1 71:1 72:0 73:1 74:1 75:1 76:1 77:1 78:1 79:1 80:0 81:1 82:1 83:1 84:1 85:1 86:1 87:0 88:1 89:1 90:1 91:0 92:1 93:0 94:0 95:1 96:0 97:1 98:1 99:0 100:0 101:1 102:0 103:0 104:0 105:0 106:0 107:0 108:1 109:0 110:1 111:0 112:0 113:0 114:1 115:1 116:0 117:1 118:0 119:0 120:0 121:0 122:1 123:1 124:1 125:1 126:1 127:1 128:1 129:1 130:0 131:0 132:0 133:0 134:0 135:0 136:0 137:0 138:0 139:0 140:0 141:0 142:0 143:0 144:0 145:0 146:0 147:0 148:0 149:0 150:0 151:0 152:0 153:0 154:0 155:0 156:0 157:0 158:0 159:0 160:1 161:1 162:0 163:0 164:0 165:0 166:0 167:0 168:0 169:0 170:1 171:1 172:1 173:0 174:0 175:0 176:0 177:0 178:0 179:0 180:0 181:0 182:0 183:0 184:0 185:0 186:0 187:0 188:1 189:1 190:0 191:1 192:1 193:0 194:0 195:0 196:0 197:0 198:0 199:0 200:0 201:0 202:0 203:0 204:0 205:0 206:0 207:0 208:0 209:0 210:0 211:0 212:0 213:0 214:0 215:0 216:0 217:0 218:0 219:0 220:0 221:1 222:1 223:0 224:1 225:1 226:0 227:0 228:0 229:0 230:0 231:0 232:0 233:0 234:0 235:0 236:0 237:0 238:0 239:0 240:0 241:0 242:0 243:0 244:0 245:0 246:0 247:0 248:1 249:1 
0.074948365129585068 1:1 2:0 3:1 4:0 5:1 6:1 7:0 8:1 9:0 10:1 11:0 12:0 13:0 14:1 15:0 16:0 17:0 18:0 19:0 20:0 21:0 22:1 23:0 24:0 25:0 26:0 27:0 28:0 29:0 30:0 31:0 32:0 33:0 34:0 35:0 36:0 37:1 38:1 39:1 40:1 41:1 42:1 43:1 44:1 45:0 46:1 47:1 48:1 49:1 50:1 51:1 52:1 53:1 54:1 55:1 56:1 57:1 58:1 59:1 60:1 61:1 62:1 63:1 64:1 65:1 66:0 67:0 68:0 69:1 70:0 71:1 72:1 73:1 74:1 75:0 76:0 77:1 78:0 79:0 80:0 81:0 82:1 83:1 84:1 85:1 86:1 87:1 88:1 89:1 90:1 91:1 92:1 93:1 94:1 95:1 96:1 97:1 98:1 99:1 100:1 101:1 102:1 103:1 104:1 105:0 106:1 107:1 108:1 109:1 110:1 111:1 112:1 113:1 114:1 115:1 116:1 117:1 118:0 119:1 120:1 121:1 122:1 123:0 124:0 125:0 126:0 127:0 128:0 129:0 130:0 131:0 132:0 133:0 134:0 135:0 136:0 137:0 138:0 139:0 140:0 141:0 142:0 143:0 144:0 145:0 146:0 147:0 148:0 149:0 150:0 151:0 152:0 153:0 154:0 155:0 156:0 157:0 158:0 159:0 160:0 161:0 162:0 163:0 164:0 165:0 166:0 167:0 168:0 169:0 170:0 171:0 172:0 173:0 174:0 175:0 176:0 177:0 178:0 179:0 180:0 181:0 182:0 183:0 184:0 185:0 186:0 187:0 188:0 189:0 190:0 191:0 192:0 193:0 194:0 195:0 196:0 197:0 198:0 199:0 200:0 201:0 202:0 203:0 204:0 205:0 206:0 207:0 208:0 209:0 210:0 211:0 212:0 213:0 214:0 215:0 216:0 217:0 218:0 219:0 220:0 221:0 222:0 223:0 224:0 225:0 226:0 227:0 228:0 229:0 230:0 231:0 232:0 233:0 234:0 235:0 236:0 237:0 238:0 239:0 240:0 241:0 242:0 243:0 244:0 245:0 246:0 247:0 248:1 249:1 
0.29833007467558903 1:1 2:1 3:1 4:0 5:1 6:1 7:1 8:1 9:0 10:1 11:1 12:1 13:0 14:1 15:0 16:0 17:0 18:0 19:0 20:0 21:0 22:1 23:1 24:1 25:0 26:1 27:1 28:1 29:1 30:1 31:1 32:1 33:1 34:0 35:1 36:1 37:1 38:1 39:1 40:1 41:1 42:1 43:1 44:1 45:1 46:1 47:1 48:1 49:1 50:1 51:1 52:0 53:1 54:1 55:1 56:1 57:1 58:1 59:1 60:1 61:1 62:1 63:1 64:1 65:1 66:1 67:1 68:1 69:1 70:1 71:1 72:1 73:1 74:1 75:1 76:1 77:1 78:1 79:0 80:0 81:0 82:1 83:1 84:1 85:1 86:1 87:1 88:1 89:1 90:1 91:1 92:1 93:1 94:1 95:1 96:1 97:1 98:1 99:1 100:1 101:1 102:1 103:0 104:1 105:0 106:1 107:1 108:1 109:1 110:1 111:1 112:1 113:1 114:1 115:1 116:0 117:1 118:0 119:1 120:0 121:1 122:1 123:1 124:1 125:1 126:1 127:1 128:1 129:1 130:1 131:1 132:1 133:1 134:1 135:1 136:1 137:1 138:1 139:0 140:0 141:1 142:0 143:1 144:1 145:1 146:1 147:1 148:1 149:0 150:1 151:1 152:1 153:1 154:1 155:0 156:1 157:1 158:0 159:0 160:1 161:1 162:1 163:1 164:1 165:1 166:1 167:0 168:1 169:1 170:1 171:1 172:1 173:1 174:1 175:1 176:1 177:1 178:1 179:1 180:1 181:0 182:1 183:1 184:1 185:1 186:1 187:1 188:1 189:0 190:0 191:1 192:1 193:1 194:1 195:1 196:1 197:1 198:1 199:1 200:1 201:1 202:1 203:1 204:0 205:1 206:1 207:0 208:1 209:1 210:0 211:1 212:1 213:1 214:1 215:0 216:0 217:0 218:0 219:0 220:0 221:1 222:1 223:1 224:1 225:1 226:1 227:1 228:1 229:1 230:1 231:1 232:1 233:1 234:0 235:1 236:0 237:1 238:0 239:1 240:1 241:1 242:1 243:1 244:1 245:1 246:1 247:1 248:1 249:1 
0.24271835940948774 1:1 2:0 3:0 4:0 5:1 6:1 7:0 8:0 9:0 10:0 11:0 12:0 13:0 14:0 15:0 16:0 17:0 18:0 19:0 20:0 21:0 22:1 23:0 24:1 25:0 26:0 27:0 28:1 29:0 30:0 31:1 32:1 33:0 34:0 35:1 36:0 37:1 38:1 39:1 40:1 41:1 42:1 43:1 44:1 45:0 46:1 47:0 48:1 49:1 50:1 51:1 52:0 53:0 54:0 55:1 56:1 57:1 58:0 59:1 60:0 61:1 62:0 63:0 64:1 65:1 66:0 67:0 68:0 69:1 70:0 71:1 72:1 73:1 74:1 75:0 76:0 77:0 78:0 79:0 80:0 81:0 82:1 83:1 84:1 85:1 86:1 87:0 88:0 89:1 90:1 91:1 92:1 93:1 94:1 95:1 96:1 97:1 98:1 99:1 100:1 101:1 102:1 103:0 104:0 105:0 106:0 107:0 108:1 109:1 110:1 111:1 112:1 113:1 114:1 115:1 116:0 117:1 118:0 119:0 120:0 121:0 122:1 123:0 124:0 125:1 126:0 127:0 128:1 129:0 130:0 131:0 132:0 133:0 134:0 135:0 136:0 137:0 138:0 139:0 140:0 141:0 142:0 143:0 144:0 145:0 146:0 147:0 148:0 149:0 150:0 151:0 152:0 153:0 154:0 155:0 156:0 157:0 158:0 159:0 160:0 161:0 162:0 163:0 164:0 165:0 166:0 167:0 168:0 169:1 170:0 171:0 172:0 173:0 174:0 175:0 176:0 177:0 178:0 179:0 180:0 181:0 182:0 183:0 184:0 185:0 186:0 187:0 188:0 189:0 190:0 191:1 192:0 193:0 194:0 195:0 196:0 197:0 198:1 199:1 200:1 201:0 202:0 203:0 204:0 205:0 206:0 207:0 208:0 209:1 210:0 211:1 212:1 213:0 214:0 215:0 216:0 217:0 218:0 219:0 220:0 221:1 222:0 223:0 224:1 225:0 226:0 227:0 228:0 229:1 230:1 231:0 232:0 233:0 234:0 235:0 236:0 237:1 238:0 239:1 240:0 241:0 242:0 243:0 244:1 245:0 246:0 247:0 248:1 249:1 
0.53982698481394609 1:1 2:1 3:0 4:0 5:1 6:1 7:0 8:0 9:0 10:0 11:1 12:0 13:0 14:0 15:0 16:0 17:0 18:0 19:0 20:0 21:0 22:1 23:0 24:1 25:1 26:1 27:1 28:1 29:1 30:1 31:1 32:1 33:1 34:1 35:1 36:0 37:1 38:1 39:1 40:1 41:1 42:1 43:1 44:1 45:1 46:1 47:0 48:1 49:1 50:1 51:1 52:0 53:1 54:0 55:1 56:1 57:1 58:1 59:1 60:0 61:1 62:1 63:1 64:1 65:1 66:1 67:1 68:1 69:1 70:1 71:1 72:1 73:1 74:1 75:0 76:0 77:0 78:1 79:0 80:0 81:0 82:1 83:1 84:1 85:1 86:1 87:0 88:0 89:1 90:1 91:1 92:1 93:1 94:1 95:1 96:1 97:1 98:1 99:1 100:1 101:1 102:1 103:1 104:1 105:0 106:1 107:1 108:1 109:1 110:1 111:1 112:1 113:1 114:1 115:1 116:0 117:1 118:1 119:1 120:1 121:1 122:1 123:1 124:1 125:1 126:1 127:1 128:1 129:1 130:1 131:1 132:1 133:1 134:1 135:0 136:0 137:0 138:0 139:0 140:0 141:0 142:0 143:0 144:0 145:0 146:0 147:0 148:0 149:0 150:1 151:1 152:1 153:1 154:1 155:1 156:1 157:1 158:1 159:1 160:1 161:1 162:1 163:1 164:1 165:1 166:1 167:0 168:1 169:1 170:0 171:0 172:0 173:0 174:0 175:0 176:0 177:0 178:0 179:0 180:0 181:0 182:0 183:0 184:0 185:0 186:0 187:0 188:0 189:0 190:0 191:1 192:1 193:1 194:1 195:1 196:1 197:1 198:1 199:1 200:1 201:1 202:1 203:1 204:1 205:1 206:1 207:1 208:1 209:1 210:1 211:1 212:1 213:1 214:1 215:1 216:1 217:1 218:1 219:1 220:1 221:1 222:1 223:1 224:1 225:1 226:1 227:1 228:1 229:1 230:1 231:1 232:1 233:1 234:0 235:1 236:0 237:1 238:0 239:1 240:1 241:1 242:1 243:1 244:1 245:1 246:1 247:1 248:1 249:1 
1 1:1 2:1 3:1 4:1 5:1 6:1 7:1 8:1 9:1 10:1 11:1 12:1 13:1 14:1 15:0 16:0 17:0 18:0 19:0 20:0 21:0 22:1 23:1 24:1 25:1 26:1 27:1 28:0 29:0 30:0 31:0 32:1 33:1 34:1 35:0 36:1 37:1 38:1 39:1 40:1 41:1 42:1 43:1 44:1 45:0 46:1 47:1 48:1 49:1 50:1 51:1 52:0 53:1 54:1 55:1 56:1 57:1 58:1 59:1 60:0 61:1 62:1 63:1 64:1 65:1 66:1 67:1 68:1 69:1 70:1 71:1 72:1 73:1 74:1 75:1 76:1 77:1 78:1 79:1 80:1 81:1 82:1 83:1 84:1 85:1 86:1 87:0 88:1 89:1 90:1 91:1 92:1 93:1 94:1 95:1 96:1 97:1 98:1 99:1 100:1 101:1 102:1 103:0 104:1 105:0 106:1 107:0 108:1 109:1 110:1 111:1 112:0 113:1 114:1 115:1 116:0 117:1 118:0 119:1 120:0 121:1 122:1 123:1 124:1 125:1 126:1 127:1 128:1 129:1 130:1 131:0 132:0 133:1 134:0 135:1 136:0 137:0 138:0 139:0 140:0 141:0 142:0 143:0 144:0 145:0 146:0 147:0 148:1 149:1 150:0 151:0 152:0 153:0 154:0 155:0 156:0 157:0 158:0 159:0 160:0 161:0 162:0 163:0 164:0 165:0 166:0 167:0 168:0 169:0 170:1 171:0 172:0 173:0 174:0 175:0 176:0 177:0 178:0 179:0 180:0 181:0 182:0 183:0 184:0 185:0 186:0 187:0 188:1 189:1 190:1 191:0 192:0 193:0 194:0 195:0 196:0 197:0 198:0 199:0 200:0 201:0 202:0 203:0 204:0 205:0 206:0 207:0 208:0 209:0 210:0 211:0 212:0 213:0 214:0 215:0 216:0 217:0 218:0 219:0 220:0 221:0 222:0 223:0 224:0 225:0 226:0 227:0 228:0 229:0 230:0 231:0 232:0 233:0 234:0 235:0 236:0 237:0 238:0 239:0 240:0 241:0 242:0 243:0 244:0 245:0 246:0 247:0 248:1 249:1 
0.048049515061335764 1:1 2:1 3:0 4:0 5:1 6:1 7:0 8:0 9:0 10:1 11:1 12:0 13:0 14:0 15:0 16:0 17:0 18:0 19:0 20:0 21:0 22:1 23:1 24:1 25:1 26:1 27:1 28:1 29:1 30:1 31:1 32:1 33:1 34:1 35:1 36:1 37:1 38:1 39:1 40:1 41:1 42:1 43:1 44:1 45:1 46:1 47:1 48:1 49:1 50:1 51:1 52:0 53:1 54:0 55:1 56:1 57:1 58:1 59:1 60:0 61:1 62:1 63:1 64:1 65:1 66:1 67:1 68:1 69:1 70:1 71:1 72:1 73:1 74:1 75:0 76:0 77:1 78:1 79:0 80:0 81:0 82:1 83:1 84:1 85:1 86:1 87:0 88:0 89:1 90:1 91:1 92:1 93:1 94:1 95:1 96:1 97:1 98:1 99:1 100:1 101:1 102:1 103:1 104:1 105:1 106:1 107:1 108:1 109:1 110:1 111:1 112:1 113:1 114:1 115:1 116:0 117:1 118:1 119:1 120:1 121:1 122:1 123:1 124:1 125:1 126:1 127:1 128:1 129:1 130:1 131:1 132:1 133:1 134:1 135:1 136:1 137:1 138:1 139:0 140:0 141:0 142:0 143:0 144:0 145:0 146:0 147:0 148:0 149:0 150:1 151:1 152:1 153:1 154:1 155:1 156:1 157:1 158:1 159:1 160:1 161:1 162:1 163:1 164:1 165:1 166:1 167:1 168:1 169:1 170:1 171:0 172:0 173:0 174:0 175:0 176:0 177:0 178:0 179:0 180:0 181:0 182:0 183:0 184:0 185:0 186:0 187:0 188:0 189:0 190:0 191:1 192:1 193:1 194:1 195:1 196:1 197:1 198:1 199:1 200:1 201:1 202:1 203:1 204:1 205:1 206:1 207:1 208:1 209:1 210:1 211:1 212:1 213:1 214:1 215:1 216:1 217:1 218:1 219:1 220:1 221:1 222:1 223:1 224:1 225:1 226:1 227:1 228:1 229:1 230:1 231:1 232:1 233:1 234:1 235:1 236:1 237:1 238:1 239:1 240:1 241:1 242:1 243:1 244:1 245:1 246:1 247:1 248:1 249:1 
0.65336955132916785 1:1 2:1 3:1 4:0 5:1 6:1 7:1 8:1 9:0 10:0 11:1 12:1 13:0 14:1 15:0 16:0 17:0 18:0 19:0 20:0 21:0 22:1 23:0 24:0 25:0 26:0 27:0 28:0 29:0 30:0 31:0 32:0 33:0 34:0 35:0 36:0 37:1 38:1 39:1 40:1 41:1 42:1 43:1 44:1 45:1 46:1 47:0 48:1 49:1 50:1 51:1 52:1 53:1 54:1 55:1 56:1 57:1 58:1 59:1 60:1 61:1 62:1 63:1 64:1 65:1 66:1 67:0 68:0 69:1 70:1 71:1 72:1 73:1 74:1 75:1 76:0 77:0 78:1 79:1 80:0 81:0 82:1 83:1 84:1 85:1 86:1 87:1 88:1 89:1 90:1 91:1 92:1 93:1 94:1 95:1 96:1 97:1 98:1 99:1 100:1 101:1 102:1 103:1 104:1 105:0 106:1 107:1 108:1 109:1 110:1 111:1 112:1 113:1 114:1 115:1 116:1 117:1 118:1 119:1 120:1 121:1 122:1 123:0 124:0 125:0 126:0 127:0 128:0 129:0 130:0 131:0 132:0 133:0 134:0 135:0 136:0 137:0 138:0 139:0 140:0 141:0 142:0 143:0 144:0 145:0 146:0 147:0 148:0 149:0 150:0 151:0 152:0 153:0 154:0 155:0 156:0 157:0 158:0 159:0 160:0 161:0 162:0 163:0 164:0 165:0 166:0 167:0 168:0 169:0 170:0 171:0 172:0 173:0 174:0 175:0 176:0 177:0 178:0 179:0 180:0 181:0 182:0 183:0 184:0 185:0 186:0 187:0 188:0 189:0 190:0 191:0 192:0 193:0 194:0 195:0 196:0 197:0 198:0 199:0 200:0 201:0 202:0 203:0 204:0 205:0 206:0 207:0 208:0 209:0 210:0 211:0 212:0 213:0 214:0 215:0 216:0 217:0 218:0 219:0 220:0 221:0 222:0 223:0 224:0 225:0 226:0 227:0 228:0 229:0 230:0 231:0 232:0 233:0 234:0 235:0 236:0 237:0 238:0 239:0 240:0 241:0 242:0 243:0 244:0 245:0 246:0 247:0 248:1 249:1 
0.49255099769213895 1:1 2:0 3:0 4:0 5:1 6:1 7:0 8:0 9:0 10:1 11:1 12:0 13:0 14:0 15:0 16:0 17:0 18:0 19:0 20:0 21:0 22:1 23:1 24:1 25:0 26:0 27:0 28:0 29:0 30:0 31:0 32:1 33:0 34:0 35:1 36:1 37:1 38:0 39:1 40:0 41:1 42:1 43:1 44:1 45:0 46:1 47:1 48:1 49:1 50:1 51:1 52:0 53:0 54:0 55:1 56:1 57:1 58:0 59:1 60:0 61:1 62:0 63:0 64:1 65:1 66:0 67:0 68:0 69:1 70:0 71:1 72:0 73:1 74:1 75:0 76:0 77:1 78:1 79:0 80:0 81:1 82:1 83:1 84:1 85:1 86:1 87:0 88:0 89:1 90:1 91:0 92:1 93:0 94:0 95:0 96:0 97:1 98:1 99:1 100:0 101:1 102:1 103:0 104:0 105:0 106:0 107:0 108:1 109:0 110:1 111:0 112:0 113:0 114:1 115:1 116:0 117:1 118:0 119:0 120:1 121:0 122:1 123:0 124:0 125:1 126:0 127:0 128:1 129:0 130:0 131:0 132:0 133:0 134:0 135:0 136:0 137:0 138:0 139:0 140:0 141:0 142:0 143:0 144:0 145:0 146:0 147:0 148:0 149:0 150:0 151:0 152:0 153:0 154:0 155:0 156:0 157:0 158:0 159:0 160:0 161:0 162:0 163:0 164:0 165:0 166:0 167:0 168:0 169:0 170:1 171:0 172:0 173:0 174:0 175:0 176:0 177:0 178:0 179:0 180:0 181:0 182:0 183:0 184:0 185:0 186:0 187:0 188:0 189:1 190:0 191:1 192:0 193:0 194:0 195:0 196:0 197:0 198:0 199:0 200:1 201:0 202:0 203:0 204:0 205:0 206:0 207:0 208:0 209:0 210:0 211:0 212:1 213:0 214:0 215:0 216:0 217:0 218:1 219:0 220:0 221:0 222:0 223:0 224:0 225:0 226:0 227:0 228:0 229:0 230:0 231:0 232:0 233:0 234:0 235:0 236:0 237:0 238:0 239:0 240:0 241:0 242:0 243:0 244:0 245:0 246:0 247:0 248:1 249:0 
0.015965177645472395 1:1 2:0 3:1 4:0 5:1 6:1 7:0 8:0 9:0 10:1 11:0 12:0 13:0 14:1 15:1 16:1 17:1 18:0 19:0 20:0 21:0 22:1 23:0 24:1 25:0 26:0 27:0 28:1 29:1 30:1 31:1 32:1 33:0 34:0 35:1 36:1 37:1 38:1 39:1 40:1 41:1 42:1 43:0 44:1 45:0 46:1 47:1 48:1 49:1 50:1 51:0 52:0 53:0 54:0 55:0 56:1 57:0 58:0 59:1 60:0 61:0 62:0 63:0 64:0 65:1 66:0 67:0 68:0 69:1 70:0 71:1 72:1 73:1 74:1 75:0 76:0 77:1 78:0 79:0 80:0 81:0 82:1 83:1 84:0 85:0 86:0 87:0 88:0 89:1 90:1 91:1 92:1 93:1 94:1 95:1 96:1 97:1 98:1 99:1 100:1 101:1 102:1 103:0 104:0 105:0 106:0 107:0 108:0 109:1 110:1 111:1 112:0 113:1 114:0 115:1 116:0 117:0 118:0 119:0 120:0 121:0 122:1 123:0 124:0 125:1 126:0 127:0 128:1 129:0 130:0 131:0 132:0 133:1 134:1 135:1 136:1 137:1 138:1 139:0 140:0 141:1 142:0 143:1 144:1 145:1 146:1 147:0 148:0 149:0 150:1 151:1 152:1 153:1 154:1 155:0 156:1 157:1 158:0 159:0 160:1 161:1 162:1 163:1 164:0 165:0 166:1 167:0 168:1 169:1 170:1 171:1 172:1 173:1 174:1 175:0 176:0 177:0 178:0 179:0 180:1 181:0 182:0 183:0 184:1 185:0 186:0 187:0 188:0 189:0 190:0 191:1 192:0 193:0 194:0 195:0 196:0 197:0 198:1 199:1 200:1 201:0 202:0 203:0 204:0 205:0 206:0 207:0 208:0 209:1 210:0 211:1 212:1 213:0 214:0 215:0 216:0 217:0 218:0 219:0 220:0 221:1 222:0 223:0 224:1 225:0 226:0 227:0 228:0 229:1 230:1 231:0 232:0 233:0 234:0 235:0 236:0 237:1 238:0 239:1 240:0 241:0 242:0 243:0 244:0 245:0 246:0 247:0 248:1 249:1 
0.23110083175796425 1:1 2:0 3:1 4:1 5:1 6:1 7:0 8:1 9:1 10:0 11:1 12:1 13:1 14:1 15:0 16:0 17:0 18:0 19:0 20:0 21:0 22:1 23:0 24:0 25:0 26:0 27:0 28:0 29:0 30:0 31:0 32:0 33:0 34:0 35:0 36:0 37:1 38:1 39:1 40:1 41:1 42:1 43:1 44:1 45:0 46:1 47:0 48:1 49:1 50:1 51:1 52:0 53:1 54:1 55:1 56:1 57:1 58:1 59:1 60:0 61:1 62:1 63:1 64:1 65:1 66:0 67:0 68:0 69:1 70:0 71:1 72:1 73:1 74:1 75:0 76:0 77:0 78:1 79:0 80:0 81:0 82:1 83:1 84:1 85:1 86:1 87:0 88:1 89:1 90:1 91:1 92:1 93:1 94:1 95:1 96:1 97:1 98:1 99:1 100:1 101:1 102:1 103:1 104:1 105:0 106:1 107:1 108:1 109:1 110:1 111:1 112:1 113:1 114:1 115:1 116:0 117:1 118:0 119:1 120:1 121:1 122:1 123:0 124:0 125:0 126:0 127:0 128:0 129:0 130:0 131:0 132:0 133:0 134:0 135:0 136:0 137:0 138:0 139:0 140:0 141:0 142:0 143:0 144:0 145:0 146:0 147:0 148:0 149:0 150:0 151:0 152:0 153:0 154:0 155:0 156:0 157:0 158:0 159:0 160:0 161:0 162:0 163:0 164:0 165:0 166:0 167:0 168:0 169:0 170:0 171:0 172:0 173:0 174:0 175:0 176:0 177:0 178:0 179:0 180:0 181:0 182:0 183:0 184:0 185:0 186:0 187:0 188:0 189:0 190:0 191:0 192:0 193:0 194:0 195:0 196:0 197:0 198:0 199:0 200:0 201:0 202:0 203:0 204:0 205:0 206:0 207:0 208:0 209:0 210:0 211:0 212:0 213:0 214:0 215:0 216:0 217:0 218:0 219:0 220:0 221:0 222:0 223:0 224:0 225:0 226:0 227:0 228:0 229:0 230:0 231:0 232:0 233:0 234:0 235:0 236:0 237:0 238:0 239:0 240:0 241:0 242:0 243:0 244:0 245:0 246:0 247:0 248:1 249:1 
0.089917213413098038 1:1 2:1 3:1 4:0 5:1 6:1 7:1 8:1 9:0 10:1 11:1 12:1 13:1 14:1 15:0 16:0 17:0 18:0 19:0 20:0 21:0 22:1 23:0 24:1 25:0 26:1 27:1 28:0 29:0 30:0 31:0 32:1 33:1 34:0 35:1 36:1 37:1 38:0 39:1 40:0 41:1 42:1 43:1 44:1 45:1 46:1 47:1 48:1 49:1 50:1 51:1 52:0 53:0 54:0 55:1 56:1 57:1 58:0 59:1 60:0 61:1 62:0 63:0 64:1 65:1 66:1 67:1 68:1 69:1 70:1 71:1 72:0 73:1 74:1 75:1 76:1 77:1 78:1 79:1 80:0 81:1 82:1 83:1 84:1 85:1 86:1 87:0 88:0 89:1 90:1 91:0 92:1 93:0 94:0 95:0 96:0 97:1 98:1 99:1 100:0 101:1 102:1 103:0 104:0 105:0 106:0 107:0 108:1 109:0 110:1 111:0 112:0 113:0 114:1 115:1 116:0 117:1 118:0 119:0 120:1 121:0 122:1 123:1 124:1 125:1 126:1 127:1 128:1 129:1 130:1 131:0 132:0 133:1 134:0 135:1 136:1 137:1 138:1 139:1 140:0 141:0 142:0 143:0 144:0 145:0 146:0 147:0 148:1 149:1 150:1 151:0 152:0 153:1 154:0 155:0 156:0 157:1 158:0 159:1 160:0 161:0 162:0 163:0 164:0 165:0 166:0 167:0 168:0 169:0 170:1 171:0 172:0 173:0 174:0 175:0 176:0 177:0 178:0 179:0 180:0 181:0 182:0 183:0 184:0 185:0 186:0 187:0 188:1 189:1 190:0 191:1 192:0 193:0 194:0 195:0 196:0 197:0 198:0 199:0 200:1 201:0 202:0 203:0 204:0 205:0 206:0 207:0 208:0 209:0 210:0 211:0 212:1 213:0 214:0 215:0 216:0 217:0 218:1 219:0 220:0 221:0 222:0 223:0 224:0 225:0 226:0 227:0 228:0 229:0 230:0 231:0 232:0 233:0 234:0 235:0 236:0 237:0 238:0 239:0 240:0 241:0 242:0 243:0 244:0 245:0 246:0 247:0 248:1 249:0 
1 1:1 2:1 3:0 4:0 5:1 6:1 7:1 8:0 9:0 10:1 11:0 12:0 13:0 14:0 15:0 16:0 17:0 18:0 19:0 20:0 21:0 22:1 23:1 24:1 25:0 26:1 27:1 28:1 29:1 30:1 31:1 32:1 33:1 34:0 35:1 36:1 37:1 38:1 39:1 40:1 41:1 42:1 43:1 44:1 45:1 46:1 47:1 48:1 49:1 50:1 51:1 52:0 53:0 54:0 55:1 56:1 57:1 58:0 59:1 60:0 61:1 62:0 63:0 64:1 65:1 66:1 67:1 68:1 69:1 70:1 71:1 72:1 73:1 74:1 75:1 76:1 77:1 78:0 79:0 80:0 81:0 82:1 83:1 84:1 85:1 86:1 87:0 88:0 89:1 90:1 91:1 92:1 93:1 94:1 95:1 96:1 97:1 98:1 99:1 100:1 101:1 102:1 103:0 104:0 105:0 106:0 107:0 108:1 109:1 110:1 111:1 112:0 113:1 114:1 115:1 116:0 117:1 118:0 119:0 120:1 121:0 122:1 123:1 124:1 125:1 126:1 127:1 128:1 129:1 130:1 131:1 132:1 133:1 134:1 135:1 136:1 137:1 138:1 139:0 140:0 141:1 142:0 143:1 144:1 145:1 146:1 147:1 148:1 149:0 150:1 151:1 152:1 153:1 154:1 155:0 156:1 157:1 158:0 159:1 160:1 161:1 162:1 163:1 164:0 165:0 166:1 167:0 168:1 169:1 170:1 171:1 172:1 173:1 174:1 175:0 176:0 177:0 178:1 179:0 180:1 181:0 182:1 183:1 184:1 185:1 186:1 187:1 188:1 189:0 190:0 191:1 192:1 193:1 194:1 195:1 196:1 197:1 198:1 199:1 200:1 201:1 202:1 203:1 204:0 205:1 206:1 207:0 208:1 209:1 210:0 211:1 212:1 213:1 214:1 215:0 216:0 217:0 218:1 219:0 220:0 221:1 222:1 223:1 224:1 225:1 226:1 227:1 228:1 229:1 230:1 231:1 232:1 233:1 234:0 235:1 236:0 237:1 238:0 239:1 240:1 241:1 242:0 243:0 244:0 245:0 246:0 247:0 248:1 249:1 
0.067936228637437521 1:1 2:1 3:1 4:1 5:1 6:1 7:1 8:1 9:0 10:1 11:1 12:1 13:1 14:1 15:1 16:1 17:1 18:0 19:0 20:1 21:1 22:1 23:1 24:1 25:1 26:1 27:1 28:1 29:1 30:1 31:1 32:1 33:1 34:1 35:1 36:1 37:1 38:1 39:1 40:1 41:1 42:1 43:1 44:1 45:1 46:1 47:1 48:1 49:1 50:1 51:1 52:0 53:0 54:1 55:1 56:1 57:1 58:0 59:1 60:0 61:1 62:0 63:0 64:1 65:1 66:1 67:1 68:1 69:1 70:1 71:1 72:0 73:1 74:1 75:1 76:1 77:1 78:1 79:1 80:0 81:1 82:1 83:1 84:1 85:1 86:1 87:0 88:1 89:1 90:1 91:0 92:1 93:0 94:0 95:1 96:0 97:1 98:1 99:1 100:0 101:1 102:0 103:0 104:0 105:0 106:0 107:0 108:1 109:0 110:1 111:0 112:0 113:0 114:1 115:1 116:0 117:1 118:0 119:0 120:0 121:0 122:1 123:1 124:1 125:1 126:1 127:1 128:1 129:1 130:0 131:0 132:0 133:0 134:0 135:0 136:0 137:0 138:0 139:0 140:0 141:0 142:0 143:0 144:0 145:0 146:0 147:0 148:0 149:0 150:0 151:0 152:0 153:0 154:0 155:0 156:0 157:0 158:0 159:0 160:1 161:1 162:0 163:0 164:0 165:0 166:0 167:0 168:0 169:0 170:1 171:0 172:0 173:0 174:0 175:0 176:0 177:0 178:0 179:0 180:0 181:0 182:0 183:0 184:0 185:0 186:0 187:0 188:1 189:0 190:0 191:1 192:1 193:0 194:0 195:0 196:0 197:0 198:0 199:0 200:1 201:1 202:0 203:0 204:0 205:0 206:0 207:0 208:0 209:0 210:0 211:0 212:0 213:0 214:0 215:0 216:0 217:0 218:0 219:0 220:0 221:1 222:1 223:0 224:1 225:1 226:0 227:0 228:0 229:0 230:0 231:0 232:0 233:0 234:0 235:0 236:0 237:0 238:0 239:0 240:0 241:0 242:0 243:0 244:0 245:0 246:0 247:0 248:1 249:1 
0.33398466704998436 1:1 2:1 3:1 4:0 5:1 6:1 7:1 8:1 9:0 10:1 11:0 12:0 13:0 14:1 15:1 16:1 17:0 18:0 19:0 20:0 21:1 22:1 23:1 24:1 25:0 26:1 27:1 28:0 29:0 30:0 31:0 32:1 33:1 34:0 35:0 36:1 37:1 38:0 39:1 40:0 41:1 42:0 43:1 44:0 45:1 46:0 47:0 48:1 49:0 50:1 51:0 52:0 53:0 54:0 55:0 56:0 57:0 58:0 59:0 60:0 61:0 62:0 63:0 64:1 65:1 66:1 67:1 68:1 69:1 70:1 71:1 72:0 73:1 74:0 75:1 76:1 77:1 78:0 79:0 80:0 81:0 82:1 83:0 84:1 85:0 86:1 87:0 88:0 89:1 90:0 91:0 92:1 93:0 94:0 95:0 96:0 97:1 98:0 99:0 100:0 101:1 102:0 103:0 104:0 105:0 106:0 107:0 108:0 109:0 110:0 111:0 112:0 113:0 114:0 115:0 116:0 117:0 118:0 119:0 120:0 121:0 122:1 123:1 124:1 125:1 126:1 127:1 128:1 129:1 130:1 131:0 132:0 133:1 134:0 135:1 136:0 137:0 138:0 139:0 140:0 141:0 142:0 143:0 144:0 145:0 146:0 147:0 148:0 149:0 150:0 151:0 152:0 153:0 154:0 155:0 156:0 157:0 158:0 159:0 160:0 161:0 162:0 163:0 164:0 165:0 166:0 167:0 168:0 169:0 170:1 171:0 172:0 173:0 174:0 175:0 176:0 177:0 178:0 179:0 180:0 181:0 182:0 183:0 184:0 185:0 186:0 187:0 188:1 189:0 190:0 191:0 192:0 193:0 194:0 195:0 196:0 197:0 198:0 199:0 200:0 201:0 202:0 203:0 204:0 205:0 206:0 207:0 208:0 209:0 210:0 211:0 212:0 213:0 214:0 215:0 216:0 217:0 218:0 219:0 220:0 221:0 222:0 223:0 224:0 225:0 226:0 227:0 228:0 229:0 230:0 231:0 232:0 233:0 234:0 235:0 236:0 237:0 238:0 239:0 240:0 241:0 242:0 243:0 244:0 245:0 246:0 247:0 248:1 249:0 
0.59177667285826308 1:1 2:0 3:1 4:1 5:1 6:1 7:0 8:1 9:1 10:1 11:1 12:1 13:1 14:1 15:1 16:1 17:1 18:1 19:0 20:1 21:0 22:1 23:1 24:1 25:1 26:0 27:0 28:1 29:1 30:1 31:1 32:1 33:0 34:1 35:0 36:1 37:1 38:1 39:1 40:1 41:0 42:0 43:0 44:0 45:0 46:0 47:0 48:0 49:0 50:0 51:0 52:0 53:0 54:0 55:0 56:0 57:0 58:0 59:0 60:0 61:0 62:0 63:0 64:0 65:0 66:0 67:0 68:0 69:1 70:0 71:1 72:1 73:1 74:0 75:0 76:0 77:1 78:1 79:0 80:0 81:1 82:0 83:0 84:0 85:0 86:0 87:0 88:0 89:1 90:0 91:0 92:0 93:0 94:0 95:1 96:0 97:0 98:0 99:0 100:0 101:0 102:0 103:0 104:0 105:0 106:0 107:0 108:0 109:0 110:0 111:0 112:0 113:0 114:0 115:0 116:0 117:0 118:0 119:0 120:0 121:0 122:1 123:0 124:0 125:1 126:0 127:0 128:1 129:0 130:0 131:0 132:0 133:0 134:0 135:0 136:0 137:0 138:0 139:0 140:0 141:0 142:0 143:0 144:0 145:0 146:0 147:0 148:0 149:0 150:0 151:0 152:0 153:0 154:0 155:0 156:0 157:0 158:0 159:0 160:1 161:1 162:0 163:0 164:0 165:0 166:0 167:0 168:0 169:0 170:1 171:1 172:1 173:0 174:0 175:0 176:0 177:0 178:0 179:0 180:0 181:0 182:0 183:0 184:0 185:0 186:0 187:0 188:0 189:1 190:0 191:0 192:0 193:0 194:0 195:0 196:0 197:0 198:0 199:0 200:0 201:0 202:0 203:0 204:0 205:0 206:0 207:0 208:0 209:0 210:0 211:0 212:0 213:0 214:0 215:0 216:0 217:0 218:0 219:0 220:0 221:1 222:0 223:0 224:1 225:0 226:0 227:0 228:0 229:0 230:0 231:0 232:0 233:0 234:0 235:0 236:0 237:0 238:0 239:0 240:0 241:0 242:0 243:0 244:0 245:0 246:0 247:0 248:1 249:1 
1 1:1 2:0 3:1 4:0 5:1 6:0 7:0 8:0 9:0 10:0 11:0 12:0 13:0 14:1 15:1 16:1 17:1 18:0 19:0 20:0 21:0 22:1 23:0 24:0 25:0 26:0 27:0 28:0 29:0 30:0 31:0 32:0 33:0 34:0 35:0 36:0 37:1 38:1 39:1 40:1 41:1 42:0 43:0 44:0 45:0 46:1 47:0 48:1 49:0 50:1 51:0 52:0 53:0 54:0 55:0 56:0 57:0 58:0 59:1 60:0 61:0 62:0 63:0 64:0 65:0 66:0 67:0 68:0 69:1 70:0 71:1 72:1 73:0 74:0 75:0 76:0 77:0 78:0 79:0 80:0 81:0 82:0 83:0 84:0 85:0 86:0 87:0 88:0 89:1 90:1 91:1 92:1 93:1 94:1 95:1 96:1 97:1 98:0 99:1 100:1 101:1 102:1 103:0 104:0 105:0 106:0 107:0 108:0 109:1 110:0 111:1 112:0 113:1 114:0 115:1 116:0 117:0 118:0 119:0 120:0 121:0 122:1 123:0 124:0 125:0 126:0 127:0 128:0 129:0 130:0 131:0 132:0 133:0 134:0 135:0 136:0 137:0 138:0 139:0 140:0 141:0 142:0 143:0 144:0 145:0 146:0 147:0 148:0 149:0 150:0 151:0 152:0 153:0 154:0 155:0 156:0 157:0 158:0 159:0 160:0 161:0 162:0 163:0 164:0 165:0 166:0 167:0 168:0 169:0 170:0 171:0 172:0 173:0 174:0 175:0 176:0 177:0 178:0 179:0 180:0 181:0 182:0 183:0 184:0 185:0 186:0 187:0 188:0 189:0 190:0 191:0 192:0 193:0 194:0 195:0 196:0 197:0 198:0 199:0 200:0 201:0 202:0 203:0 204:0 205:0 206:0 207:0 208:0 209:0 210:0 211:0 212:0 213:0 214:0 215:0 216:0 217:0 218:0 219:0 220:0 221:0 222:0 223:0 224:0 225:0 226:0 227:0 228:0 229:0 230:0 231:0 232:0 233:0 234:0 235:0 236:0 237:0 238:0 239:0 240:0 241:0 242:0 243:0 244:0 245:0 246:0 247:0 248:1 249:1 
0.35744817847228189 1:1 2:1 3:1 4:0 5:1 6:1 7:1 8:0 9:0 10:1 11:1 12:0 13:0 14:1 15:1 16:1 17:0 18:0 19:0 20:0 21:0 22:1 23:1 24:1 25:1 26:1 27:1 28:1 29:0 30:0 31:1 32:1 33:1 34:1 35:1 36:1 37:1 38:1 39:1 40:1 41:1 42:1 43:1 44:1 45:1 46:1 47:1 48:1 49:1 50:1 51:1 52:0 53:0 54:1 55:1 56:1 57:1 58:0 59:1 60:0 61:1 62:0 63:0 64:1 65:1 66:1 67:1 68:1 69:1 70:1 71:1 72:1 73:1 74:1 75:1 76:1 77:1 78:1 79:1 80:1 81:1 82:1 83:1 84:1 85:1 86:1 87:0 88:1 89:1 90:1 91:0 92:1 93:0 94:0 95:1 96:1 97:1 98:1 99:1 100:0 101:1 102:0 103:0 104:0 105:0 106:0 107:0 108:1 109:0 110:1 111:0 112:0 113:0 114:1 115:1 116:0 117:1 118:0 119:0 120:0 121:0 122:1 123:1 124:1 125:1 126:1 127:1 128:1 129:1 130:0 131:0 132:1 133:0 134:0 135:0 136:0 137:0 138:0 139:0 140:0 141:0 142:0 143:0 144:0 145:0 146:0 147:0 148:0 149:0 150:0 151:0 152:0 153:0 154:0 155:0 156:0 157:0 158:0 159:0 160:0 161:0 162:0 163:0 164:0 165:0 166:0 167:0 168:0 169:1 170:1 171:0 172:0 173:0 174:0 175:0 176:0 177:0 178:0 179:0 180:0 181:0 182:0 183:0 184:0 185:0 186:0 187:0 188:1 189:1 190:1 191:1 192:1 193:0 194:0 195:0 196:0 197:0 198:0 199:0 200:1 201:1 202:0 203:0 204:0 205:0 206:0 207:0 208:0 209:0 210:0 211:0 212:0 213:0 214:0 215:0 216:0 217:0 218:0 219:0 220:0 221:1 222:1 223:0 224:1 225:1 226:0 227:0 228:1 229:1 230:0 231:0 232:0 233:0 234:0 235:0 236:0 237:0 238:0 239:0 240:0 241:0 242:0 243:0 244:0 245:0 246:0 247:0 248:1 249:1 
0.37940285441393251 1:1 2:1 3:1 4:1 5:1 6:1 7:1 8:1 9:1 10:1 11:1 12:1 13:1 14:1 15:1 16:1 17:1 18:0 19:0 20:1 21:0 22:1 23:1 24:1 25:1 26:1 27:1 28:1 29:1 30:1 31:1 32:1 33:1 34:1 35:0 36:1 37:1 38:1 39:1 40:1 41:0 42:0 43:0 44:0 45:0 46:0 47:0 48:0 49:0 50:0 51:0 52:0 53:0 54:0 55:0 56:0 57:0 58:0 59:0 60:0 61:0 62:0 63:0 64:0 65:0 66:1 67:1 68:1 69:1 70:1 71:1 72:1 73:1 74:0 75:1 76:1 77:1 78:1 79:1 80:1 81:1 82:0 83:0 84:0 85:0 86:0 87:0 88:0 89:1 90:0 91:0 92:0 93:0 94:0 95:1 96:0 97:0 98:0 99:0 100:0 101:0 102:0 103:0 104:0 105:0 106:0 107:0 108:0 109:0 110:0 111:0 112:0 113:0 114:0 115:0 116:0 117:0 118:0 119:0 120:0 121:0 122:1 123:1 124:1 125:1 126:1 127:1 128:1 129:1 130:0 131:0 132:0 133:0 134:0 135:0 136:0 137:0 138:0 139:0 140:0 141:0 142:0 143:0 144:0 145:0 146:0 147:0 148:0 149:0 150:0 151:0 152:0 153:0 154:0 155:0 156:0 157:0 158:0 159:0 160:1 161:1 162:0 163:0 164:0 165:0 166:0 167:0 168:0 169:0 170:1 171:1 172:1 173:0 174:0 175:0 176:0 177:0 178:0 179:0 180:0 181:0 182:0 183:0 184:0 185:1 186:0 187:1 188:1 189:1 190:1 191:0 192:0 193:0 194:0 195:0 196:0 197:0 198:0 199:0 200:0 201:0 202:0 203:0 204:0 205:0 206:0 207:0 208:0 209:0 210:0 211:0 212:0 213:0 214:0 215:0 216:0 217:0 218:0 219:0 220:0 221:1 222:1 223:1 224:1 225:1 226:1 227:0 228:0 229:0 230:0 231:0 232:0 233:0 234:0 235:0 236:0 237:0 238:0 239:0 240:0 241:0 242:0 243:0 244:0 245:0 246:0 247:0 248:1 249:1 
0.087733437378749307 1:1 2:1 3:1 4:0 5:1 6:1 7:1 8:1 9:0 10:1 11:1 12:0 13:0 14:1 15:1 16:1 17:0 18:0 19:0 20:0 21:1 22:1 23:1 24:1 25:1 26:1 27:1 28:1 29:0 30:0 31:1 32:1 33:1 34:1 35:1 36:1 37:1 38:1 39:1 40:1 41:1 42:1 43:1 44:1 45:1 46:1 47:1 48:1 49:1 50:1 51:1 52:0 53:1 54:1 55:1 56:1 57:1 58:0 59:1 60:0 61:1 62:0 63:0 64:1 65:1 66:1 67:1 68:1 69:1 70:1 71:1 72:1 73:1 74:1 75:1 76:1 77:1 78:1 79:1 80:1 81:1 82:1 83:1 84:1 85:1 86:1 87:0 88:1 89:1 90:1 91:0 92:1 93:0 94:0 95:1 96:1 97:1 98:1 99:1 100:0 101:1 102:0 103:0 104:0 105:0 106:0 107:0 108:1 109:0 110:1 111:0 112:0 113:0 114:1 115:1 116:0 117:1 118:0 119:1 120:0 121:0 122:1 123:1 124:1 125:1 126:1 127:1 128:1 129:1 130:0 131:0 132:1 133:0 134:0 135:0 136:0 137:0 138:0 139:0 140:0 141:0 142:0 143:0 144:0 145:0 146:0 147:0 148:0 149:0 150:0 151:0 152:0 153:0 154:0 155:0 156:0 157:0 158:0 159:0 160:0 161:0 162:0 163:0 164:0 165:0 166:0 167:0 168:0 169:1 170:1 171:0 172:0 173:0 174:0 175:0 176:0 177:0 178:0 179:0 180:0 181:0 182:0 183:0 184:0 185:0 186:0 187:0 188:1 189:1 190:1 191:1 192:1 193:0 194:0 195:0 196:0 197:0 198:0 199:0 200:1 201:1 202:0 203:0 204:0 205:0 206:0 207:0 208:0 209:0 210:0 211:0 212:0 213:0 214:0 215:0 216:0 217:0 218:0 219:0 220:0 221:1 222:1 223:0 224:1 225:1 226:0 227:0 228:1 229:1 230:0 231:0 232:0 233:0 234:0 235:0 236:0 237:0 238:0 239:0 240:0 241:0 242:0 243:0 244:0 245:0 246:0 247:0 248:1 249:1 
1 1:1 2:1 3:0 4:0 5:1 6:1 7:1 8:0 9:0 10:1 11:1 12:0 13:1 14:0 15:0 16:0 17:0 18:0 19:0 20:0 21:0 22:1 23:0 24:1 25:0 26:1 27:1 28:1 29:1 30:1 31:1 32:1 33:1 34:0 35:1 36:1 37:1 38:1 39:1 40:1 41:1 42:1 43:1 44:1 45:1 46:1 47:1 48:1 49:1 50:1 51:1 52:0 53:0 54:0 55:1 56:1 57:1 58:0 59:1 60:0 61:1 62:0 63:0 64:1 65:1 66:1 67:1 68:1 69:1 70:1 71:1 72:1 73:1 74:1 75:1 76:1 77:1 78:1 79:1 80:0 81:0 82:1 83:1 84:1 85:1 86:1 87:0 88:0 89:1 90:1 91:1 92:1 93:1 94:1 95:1 96:1 97:1 98:1 99:1 100:1 101:1 102:1 103:0 104:0 105:0 106:0 107:0 108:1 109:1 110:1 111:1 112:0 113:1 114:1 115:1 116:0 117:1 118:0 119:0 120:1 121:0 122:1 123:1 124:1 125:1 126:1 127:1 128:1 129:1 130:1 131:1 132:1 133:1 134:1 135:1 136:1 137:1 138:1 139:0 140:0 141:1 142:0 143:1 144:1 145:1 146:1 147:1 148:1 149:0 150:1 151:1 152:1 153:1 154:1 155:0 156:1 157:1 158:0 159:1 160:1 161:1 162:1 163:1 164:0 165:0 166:1 167:0 168:1 169:1 170:1 171:1 172:1 173:1 174:1 175:0 176:0 177:0 178:1 179:0 180:1 181:0 182:1 183:1 184:1 185:1 186:1 187:1 188:1 189:0 190:0 191:1 192:1 193:1 194:1 195:1 196:1 197:1 198:1 199:1 200:1 201:1 202:1 203:1 204:0 205:1 206:1 207:0 208:1 209:1 210:0 211:1 212:1 213:1 214:1 215:0 216:0 217:0 218:1 219:0 220:0 221:1 222:1 223:1 224:1 225:1 226:1 227:1 228:1 229:1 230:1 231:1 232:1 233:1 234:0 235:1 236:0 237:1 238:0 239:1 240:1 241:1 242:0 243:0 244:0 245:0 246:0 247:0 248:1 249:1 
1 1:1 2:1 3:1 4:0 5:1 6:1 7:1 8:0 9:0 10:1 11:0 12:0 13:0 14:1 15:1 16:1 17:1 18:0 19:0 20:0 21:0 22:1 23:0 24:1 25:0 26:1 27:1 28:1 29:1 30:1 31:1 32:1 33:1 34:0 35:1 36:1 37:1 38:1 39:1 40:1 41:1 42:0 43:0 44:0 45:1 46:1 47:0 48:1 49:0 50:1 51:0 52:0 53:0 54:0 55:0 56:0 57:0 58:0 59:1 60:0 61:0 62:0 63:0 64:0 65:0 66:1 67:1 68:1 69:1 70:1 71:1 72:1 73:1 74:0 75:1 76:1 77:1 78:0 79:0 80:0 81:0 82:0 83:0 84:0 85:0 86:0 87:0 88:0 89:1 90:1 91:1 92:1 93:1 94:1 95:1 96:1 97:1 98:0 99:1 100:1 101:1 102:1 103:0 104:0 105:0 106:0 107:0 108:0 109:1 110:0 111:1 112:0 113:1 114:0 115:1 116:0 117:0 118:0 119:0 120:0 121:0 122:1 123:1 124:1 125:1 126:1 127:1 128:1 129:1 130:1 131:1 132:1 133:1 134:1 135:1 136:1 137:1 138:1 139:0 140:0 141:1 142:0 143:1 144:1 145:1 146:1 147:1 148:1 149:0 150:1 151:1 152:1 153:1 154:1 155:0 156:1 157:1 158:0 159:0 160:1 161:1 162:1 163:1 164:0 165:0 166:1 167:0 168:1 169:1 170:1 171:1 172:1 173:1 174:1 175:0 176:0 177:0 178:1 179:0 180:1 181:0 182:1 183:1 184:1 185:1 186:1 187:1 188:1 189:0 190:0 191:1 192:1 193:1 194:1 195:1 196:1 197:1 198:1 199:1 200:1 201:1 202:1 203:1 204:0 205:1 206:1 207:0 208:1 209:1 210:0 211:1 212:1 213:1 214:1 215:0 216:0 217:0 218:0 219:0 220:0 221:1 222:1 223:1 224:1 225:1 226:1 227:1 228:1 229:1 230:1 231:1 232:1 233:1 234:0 235:1 236:0 237:1 238:0 239:1 240:1 241:1 242:0 243:0 244:0 245:0 246:0 247:0 248:1 249:1 
0.4989737461716548 1:1 2:1 3:1 4:1 5:1 6:1 7:1 8:1 9:1 10:1 11:1 12:0 13:1 14:1 15:1 16:1 17:1 18:1 19:1 20:1 21:1 22:1 23:0 24:1 25:1 26:0 27:0 28:1 29:1 30:1 31:1 32:1 33:0 34:1 35:1 36:1 37:1 38:1 39:1 40:1 41:1 42:1 43:1 44:1 45:1 46:1 47:0 48:1 49:1 50:1 51:1 52:0 53:1 54:1 55:1 56:1 57:1 58:0 59:1 60:0 61:1 62:0 63:0 64:1 65:1 66:1 67:0 68:0 69:1 70:1 71:1 72:1 73:1 74:1 75:1 76:0 77:1 78:1 79:1 80:0 81:1 82:1 83:1 84:1 85:1 86:1 87:0 88:1 89:1 90:1 91:1 92:1 93:1 94:1 95:1 96:1 97:1 98:1 99:1 100:1 101:1 102:1 103:0 104:0 105:0 106:0 107:0 108:1 109:1 110:1 111:1 112:0 113:1 114:1 115:1 116:0 117:1 118:0 119:1 120:0 121:0 122:1 123:0 124:0 125:1 126:0 127:0 128:1 129:0 130:0 131:0 132:0 133:1 134:1 135:1 136:1 137:1 138:1 139:0 140:0 141:1 142:0 143:1 144:1 145:1 146:1 147:0 148:0 149:1 150:1 151:1 152:1 153:1 154:1 155:0 156:1 157:1 158:0 159:0 160:1 161:1 162:1 163:1 164:0 165:0 166:1 167:0 168:1 169:1 170:1 171:1 172:1 173:1 174:1 175:0 176:0 177:0 178:0 179:0 180:1 181:0 182:0 183:0 184:1 185:0 186:0 187:0 188:0 189:1 190:0 191:1 192:0 193:0 194:0 195:0 196:0 197:0 198:1 199:1 200:1 201:0 202:0 203:0 204:0 205:0 206:0 207:0 208:0 209:1 210:0 211:1 212:1 213:0 214:0 215:0 216:0 217:0 218:0 219:0 220:0 221:1 222:0 223:0 224:1 225:0 226:0 227:0 228:0 229:1 230:1 231:0 232:0 233:0 234:0 235:0 236:0 237:1 238:0 239:1 240:0 241:0 242:0 243:0 244:0 245:0 246:0 247:0 248:1 249:1 
0.026387008519037754 1:1 2:1 3:1 4:0 5:0 6:1 7:1 8:1 9:0 10:0 11:1 12:1 13:1 14:1 15:1 16:1 17:0 18:0 19:0 20:0 21:1 22:0 23:0 24:0 25:0 26:0 27:0 28:0 29:0 30:0 31:0 32:0 33:0 34:0 35:0 36:0 37:1 38:0 39:1 40:0 41:1 42:1 43:1 44:1 45:1 46:0 47:0 48:1 49:1 50:1 51:1 52:0 53:1 54:1 55:1 56:1 57:1 58:1 59:1 60:1 61:1 62:1 63:1 64:1 65:1 66:1 67:0 68:0 69:1 70:1 71:0 72:0 73:1 74:1 75:1 76:0 77:0 78:1 79:1 80:0 81:0 82:1 83:1 84:1 85:1 86:1 87:1 88:1 89:1 90:0 91:0 92:1 93:0 94:0 95:0 96:0 97:1 98:1 99:0 100:0 101:1 102:0 103:0 104:1 105:0 106:1 107:0 108:1 109:0 110:1 111:0 112:0 113:0 114:1 115:1 116:0 117:1 118:0 119:1 120:0 121:1 122:0 123:0 124:0 125:0 126:0 127:0 128:0 129:0 130:0 131:0 132:0 133:0 134:0 135:0 136:0 137:0 138:0 139:0 140:0 141:0 142:0 143:0 144:0 145:0 146:0 147:0 148:0 149:0 150:0 151:0 152:0 153:0 154:0 155:0 156:0 157:0 158:0 159:0 160:0 161:0 162:0 163:0 164:0 165:0 166:0 167:0 168:0 169:0 170:0 171:0 172:0 173:0 174:0 175:0 176:0 177:0 178:0 179:0 180:0 181:0 182:0 183:0 184:0 185:0 186:0 187:0 188:0 189:0 190:0 191:0 192:0 193:0 194:0 195:0 196:0 197:0 198:0 199:0 200:0 201:0 202:0 203:0 204:0 205:0 206:0 207:0 208:0 209:0 210:0 211:0 212:0 213:0 214:0 215:0 216:0 217:0 218:0 219:0 220:0 221:0 222:0 223:0 224:0 225:0 226:0 227:0 228:0 229:0 230:0 231:0 232:0 233:0 234:0 235:0 236:0 237:0 238:0 239:0 240:0 241:0 242:0 243:0 244:0 245:0 246:0 247:0 248:1 249:0 
1 1:1 2:1 3:0 4:0 5:1 6:1 7:1 8:0 9:0 10:1 11:0 12:0 13:0 14:0 15:0 16:0 17:0 18:0 19:0 20:0 21:0 22:1 23:0 24:1 25:1 26:1 27:1 28:1 29:1 30:1 31:1 32:1 33:1 34:1 35:1 36:1 37:1 38:1 39:1 40:1 41:1 42:0 43:0 44:0 45:0 46:1 47:0 48:1 49:0 50:1 51:0 52:0 53:0 54:0 55:0 56:0 57:0 58:0 59:1 60:0 61:0 62:0 63:0 64:0 65:0 66:1 67:1 68:1 69:1 70:1 71:1 72:1 73:1 74:0 75:1 76:1 77:1 78:0 79:0 80:0 81:0 82:0 83:0 84:0 85:0 86:0 87:0 88:0 89:1 90:1 91:1 92:1 93:1 94:1 95:1 96:1 97:1 98:0 99:1 100:1 101:1 102:1 103:0 104:0 105:0 106:0 107:0 108:0 109:1 110:0 111:1 112:0 113:1 114:0 115:1 116:0 117:0 118:0 119:0 120:0 121:0 122:1 123:1 124:1 125:1 126:1 127:1 128:1 129:1 130:1 131:1 132:1 133:1 134:1 135:1 136:1 137:1 138:1 139:0 140:0 141:1 142:0 143:1 144:1 145:1 146:1 147:1 148:1 149:0 150:1 151:1 152:1 153:1 154:1 155:0 156:1 157:1 158:0 159:0 160:1 161:1 162:1 163:1 164:0 165:0 166:1 167:0 168:1 169:1 170:1 171:1 172:1 173:1 174:1 175:0 176:0 177:0 178:1 179:0 180:1 181:0 182:1 183:1 184:1 185:1 186:1 187:1 188:1 189:0 190:0 191:1 192:1 193:1 194:1 195:1 196:1 197:1 198:1 199:1 200:1 201:1 202:1 203:1 204:0 205:1 206:1 207:0 208:1 209:1 210:0 211:1 212:1 213:1 214:1 215:0 216:0 217:0 218:0 219:0 220:0 221:1 222:1 223:1 224:1 225:1 226:1 227:1 228:1 229:1 230:1 231:1 232:1 233:1 234:0 235:1 236:0 237:1 238:0 239:1 240:1 241:1 242:0 243:0 244:0 245:0 246:0 247:0 248:1 249:1 
1 1:1 2:1 3:0 4:0 5:1 6:1 7:1 8:0 9:0 10:1 11:0 12:0 13:0 14:0 15:0 16:0 17:0 18:0 19:0 20:0 21:0 22:1 23:1 24:1 25:0 26:1 27:1 28:1 29:1 30:1 31:1 32:1 33:1 34:0 35:1 36:1 37:1 38:1 39:1 40:1 41:1 42:1 43:1 44:1 45:1 46:1 47:1 48:1 49:1 50:1 51:1 52:0 53:0 54:0 55:1 56:1 57:1 58:0 59:1 60:0 61:1 62:0 63:0 64:1 65:1 66:1 67:1 68:1 69:1 70:1 71:1 72:1 73:1 74:1 75:1 76:1 77:1 78:0 79:0 80:0 81:0 82:1 83:1 84:1 85:1 86:1 87:0 88:0 89:1 90:1 91:1 92:1 93:1 94:1 95:1 96:1 97:1 98:1 99:1 100:1 101:1 102:1 103:0 104:0 105:0 106:0 107:0 108:1 109:1 110:1 111:1 112:0 113:1 114:1 115:1 116:0 117:1 118:0 119:0 120:1 121:0 122:1 123:1 124:1 125:1 126:1 127:1 128:1 129:1 130:1 131:1 132:1 133:1 134:1 135:1 136:1 137:1 138:1 139:0 140:0 141:1 142:0 143:1 144:1 145:1 146:1 147:1 148:1 149:0 150:1 151:1 152:1 153:1 154:1 155:0 156:1 157:1 158:0 159:1 160:1 161:1 162:1 163:1 164:0 165:0 166:1 167:0 168:1 169:1 170:1 171:1 172:1 173:1 174:1 175:0 176:0 177:0 178:1 179:0 180:1 181:0 182:1 183:1 184:1 185:1 186:1 187:1 188:1 189:0 190:0 191:1 192:1 193:1 194:1 195:1 196:1 197:1 198:1 199:1 200:1 201:1 202:1 203:1 204:0 205:1 206:1 207:0 208:1 209:1 210:0 211:1 212:1 213:1 214:1 215:0 216:0 217:0 218:1 219:0 220:0 221:1 222:1 223:1 224:1 225:1 226:1 227:1 228:1 229:1 230:1 231:1 232:1 233:1 234:0 235:1 236:0 237:1 238:0 239:1 240:1 241:1 242:0 243:0 244:0 245:0 246:0 247:0 248:1 249:1 
0.49257326149781283 1:1 2:1 3:1 4:0 5:0 6:1 7:1 8:1 9:0 10:0 11:1 12:1 13:1 14:1 15:1 16:1 17:0 18:0 19:0 20:0 21:1 22:0 23:0 24:0 25:0 26:0 27:0 28:0 29:0 30:0 31:0 32:0 33:0 34:0 35:0 36:0 37:1 38:0 39:1 40:0 41:1 42:1 43:1 44:1 45:1 46:0 47:0 48:1 49:1 50:1 51:1 52:0 53:1 54:1 55:1 56:1 57:1 58:1 59:1 60:1 61:1 62:1 63:1 64:1 65:1 66:1 67:0 68:0 69:1 70:1 71:0 72:0 73:1 74:1 75:1 76:0 77:0 78:1 79:1 80:0 81:0 82:1 83:1 84:1 85:1 86:1 87:1 88:1 89:1 90:0 91:0 92:1 93:0 94:0 95:0 96:0 97:1 98:1 99:0 100:0 101:1 102:0 103:0 104:1 105:0 106:1 107:0 108:1 109:0 110:1 111:0 112:0 113:0 114:1 115:1 116:0 117:1 118:0 119:1 120:0 121:1 122:0 123:0 124:0 125:0 126:0 127:0 128:0 129:0 130:0 131:0 132:0 133:0 134:0 135:0 136:0 137:0 138:0 139:0 140:0 141:0 142:0 143:0 144:0 145:0 146:0 147:0 148:0 149:0 150:0 151:0 152:0 153:0 154:0 155:0 156:0 157:0 158:0 159:0 160:0 161:0 162:0 163:0 164:0 165:0 166:0 167:0 168:0 169:0 170:0 171:0 172:0 173:0 174:0 175:0 176:0 177:0 178:0 179:0 180:0 181:0 182:0 183:0 184:0 185:0 186:0 187:0 188:0 189:0 190:0 191:0 192:0 193:0 194:0 195:0 196:0 197:0 198:0 199:0 200:0 201:0 202:0 203:0 204:0 205:0 206:0 207:0 208:0 209:0 210:0 211:0 212:0 213:0 214:0 215:0 216:0 217:0 218:0 219:0 220:0 221:0 222:0 223:0 224:0 225:0 226:0 227:0 228:0 229:0 230:0 231:0 232:0 233:0 234:0 235:0 236:0 237:0 238:0 239:0 240:0 241:0 242:0 243:0 244:0 245:0 246:0 247:0 248:1 249:0 
0.1558052841920792 1:1 2:1 3:1 4:0 5:1 6:1 7:1 8:1 9:0 10:1 11:1 12:0 13:0 14:1 15:1 16:1 17:0 18:0 19:0 20:0 21:1 22:1 23:1 24:1 25:1 26:1 27:1 28:1 29:0 30:0 31:1 32:1 33:1 34:1 35:1 36:1 37:1 38:1 39:1 40:1 41:1 42:1 43:1 44:1 45:1 46:1 47:1 48:1 49:1 50:1 51:1 52:0 53:1 54:1 55:1 56:1 57:1 58:0 59:1 60:0 61:1 62:0 63:0 64:1 65:1 66:1 67:1 68:1 69:1 70:1 71:1 72:1 73:1 74:1 75:1 76:1 77:1 78:1 79:1 80:1 81:1 82:1 83:1 84:1 85:1 86:1 87:0 88:1 89:1 90:1 91:0 92:1 93:0 94:0 95:1 96:1 97:1 98:1 99:1 100:0 101:1 102:0 103:0 104:0 105:0 106:0 107:0 108:1 109:0 110:1 111:0 112:0 113:0 114:1 115:1 116:0 117:1 118:0 119:1 120:0 121:0 122:1 123:1 124:1 125:1 126:1 127:1 128:1 129:1 130:0 131:0 132:1 133:0 134:0 135:0 136:0 137:0 138:0 139:0 140:0 141:0 142:0 143:0 144:0 145:0 146:0 147:0 148:0 149:0 150:0 151:0 152:0 153:0 154:0 155:0 156:0 157:0 158:0 159:0 160:0 161:0 162:0 163:0 164:0 165:0 166:0 167:0 168:0 169:1 170:1 171:0 172:0 173:0 174:0 175:0 176:0 177:0 178:0 179:0 180:0 181:0 182:0 183:0 184:0 185:0 186:0 187:0 188:1 189:1 190:1 191:1 192:1 193:0 194:0 195:0 196:0 197:0 198:0 199:0 200:1 201:1 202:0 203:0 204:0 205:0 206:0 207:0 208:0 209:0 210:0 211:0 212:0 213:0 214:0 215:0 216:0 217:0 218:0 219:0 220:0 221:1 222:1 223:0 224:1 225:1 226:0 227:0 228:1 229:1 230:0 231:0 232:0 233:0 234:0 235:0 236:0 237:0 238:0 239:0 240:0 241:0 242:0 243:0 244:0 245:0 246:0 247:0 248:1 249:1 
0.053868233462162775 1:1 2:1 3:1 4:0 5:1 6:1 7:1 8:1 9:0 10:1 11:1 12:1 13:1 14:1 15:1 16:1 17:1 18:0 19:1 20:0 21:1 22:1 23:0 24:1 25:0 26:0 27:0 28:1 29:1 30:1 31:1 32:1 33:0 34:0 35:1 36:1 37:1 38:1 39:1 40:1 41:1 42:1 43:1 44:1 45:1 46:1 47:0 48:1 49:1 50:1 51:1 52:0 53:1 54:1 55:1 56:1 57:1 58:1 59:1 60:1 61:1 62:1 63:1 64:1 65:1 66:1 67:0 68:0 69:1 70:1 71:1 72:1 73:1 74:1 75:1 76:0 77:1 78:1 79:1 80:0 81:1 82:1 83:1 84:1 85:1 86:1 87:1 88:1 89:1 90:1 91:1 92:1 93:1 94:1 95:1 96:1 97:1 98:1 99:1 100:1 101:1 102:1 103:0 104:1 105:0 106:1 107:0 108:1 109:1 110:1 111:1 112:0 113:1 114:1 115:1 116:0 117:1 118:0 119:1 120:0 121:1 122:1 123:0 124:0 125:1 126:0 127:0 128:1 129:0 130:0 131:0 132:0 133:1 134:1 135:1 136:1 137:1 138:1 139:0 140:0 141:1 142:0 143:1 144:1 145:1 146:1 147:0 148:0 149:1 150:1 151:1 152:1 153:1 154:1 155:0 156:1 157:1 158:0 159:0 160:1 161:1 162:1 163:1 164:0 165:0 166:1 167:0 168:1 169:1 170:1 171:1 172:1 173:1 174:1 175:0 176:0 177:0 178:0 179:0 180:1 181:0 182:0 183:0 184:1 185:0 186:0 187:0 188:0 189:1 190:0 191:1 192:0 193:0 194:0 195:0 196:0 197:0 198:1 199:1 200:1 201:0 202:0 203:0 204:0 205:0 206:0 207:0 208:0 209:1 210:0 211:1 212:1 213:0 214:0 215:0 216:0 217:0 218:0 219:0 220:0 221:1 222:0 223:0 224:1 225:0 226:0 227:0 228:0 229:1 230:1 231:0 232:0 233:0 234:0 235:0 236:0 237:1 238:0 239:1 240:0 241:0 242:0 243:0 244:0 245:0 246:0 247:0 248:1 249:1 
1 1:1 2:1 3:1 4:0 5:0 6:1 7:1 8:1 9:0 10:0 11:1 12:0 13:1 14:1 15:1 16:1 17:1 18:0 19:1 20:0 21:1 22:0 23:0 24:0 25:0 26:0 27:0 28:0 29:0 30:0 31:0 32:0 33:0 34:0 35:0 36:0 37:1 38:0 39:1 40:0 41:1 42:1 43:1 44:1 45:1 46:0 47:0 48:1 49:1 50:1 51:1 52:1 53:1 54:1 55:1 56:1 57:1 58:1 59:1 60:1 61:1 62:1 63:1 64:1 65:1 66:1 67:0 68:0 69:1 70:1 71:0 72:0 73:1 74:1 75:1 76:0 77:0 78:1 79:0 80:0 81:0 82:1 83:1 84:1 85:1 86:1 87:1 88:1 89:1 90:0 91:0 92:1 93:0 94:0 95:0 96:0 97:1 98:1 99:0 100:0 101:1 102:0 103:0 104:1 105:0 106:1 107:0 108:1 109:0 110:1 111:0 112:0 113:0 114:1 115:1 116:1 117:1 118:0 119:1 120:0 121:1 122:0 123:0 124:0 125:0 126:0 127:0 128:0 129:0 130:0 131:0 132:0 133:0 134:0 135:0 136:0 137:0 138:0 139:0 140:0 141:0 142:0 143:0 144:0 145:0 146:0 147:0 148:0 149:0 150:0 151:0 152:0 153:0 154:0 155:0 156:0 157:0 158:0 159:0 160:0 161:0 162:0 163:0 164:0 165:0 166:0 167:0 168:0 169:0 170:0 171:0 172:0 173:0 174:0 175:0 176:0 177:0 178:0 179:0 180:0 181:0 182:0 183:0 184:0 185:0 186:0 187:0 188:0 189:0 190:0 191:0 192:0 193:0 194:0 195:0 196:0 197:0 198:0 199:0 200:0 201:0 202:0 203:0 204:0 205:0 206:0 207:0 208:0 209:0 210:0 211:0 212:0 213:0 214:0 215:0 216:0 217:0 218:0 219:0 220:0 221:0 222:0 223:0 224:0 225:0 226:0 227:0 228:0 229:0 230:0 231:0 232:0 233:0 234:0 235:0 236:0 237:0 238:0 239:0 240:0 241:0 242:0 243:0 244:0 245:0 246:0 247:0 248:1 249:0 
-0.090111671766707591 1:1 2:1 3:0 4:0 5:1 6:1 7:0 8:0 9:0 10:0 11:0 12:0 13:0 14:0 15:0 16:0 17:0 18:0 19:0 20:0 21:0 22:1 23:0 24:1 25:1 26:0 27:0 28:0 29:0 30:0 31:0 32:1 33:0 34:1 35:0 36:0 37:1 38:1 39:1 40:1 41:1 42:1 43:1 44:1 45:0 46:0 47:0 48:1 49:0 50:1 51:0 52:0 53:0 54:0 55:0 56:0 57:1 58:0 59:0 60:0 61:0 62:0 63:0 64:0 65:1 66:1 67:1 68:1 69:1 70:1 71:1 72:1 73:1 74:1 75:0 76:0 77:0 78:0 79:0 80:0 81:0 82:1 83:0 84:1 85:0 86:0 87:0 88:0 89:1 90:0 91:0 92:1 93:1 94:0 95:1 96:1 97:1 98:1 99:0 100:0 101:1 102:0 103:0 104:0 105:0 106:0 107:0 108:1 109:0 110:0 111:1 112:0 113:0 114:0 115:0 116:0 117:0 118:0 119:0 120:0 121:0 122:1 123:1 124:1 125:1 126:0 127:0 128:1 129:0 130:0 131:0 132:0 133:0 134:0 135:0 136:0 137:0 138:0 139:0 140:0 141:0 142:0 143:0 144:0 145:0 146:0 147:0 148:0 149:0 150:0 151:0 152:0 153:0 154:0 155:0 156:0 157:0 158:0 159:0 160:0 161:0 162:0 163:0 164:0 165:0 166:0 167:0 168:0 169:0 170:0 171:0 172:0 173:0 174:0 175:0 176:0 177:0 178:0 179:0 180:0 181:0 182:0 183:0 184:0 185:0 186:0 187:0 188:0 189:0 190:0 191:0 192:0 193:0 194:0 195:0 196:0 197:0 198:0 199:0 200:0 201:0 202:0 203:0 204:0 205:0 206:0 207:0 208:0 209:0 210:0 211:0 212:0 213:0 214:0 215:0 216:0 217:0 218:0 219:0 220:0 221:0 222:0 223:0 224:0 225:0 226:0 227:0 228:0 229:0 230:0 231:0 232:0 233:0 234:0 235:0 236:0 237:0 238:0 239:0 240:0 241:0 242:0 243:0 244:0 245:0 246:0 247:0 248:1 249:1 
-0.035911938355744175 1:1 2:1 3:0 4:0 5:1 6:1 7:1 8:0 9:0 10:1 11:1 12:0 13:0 14:0 15:0 16:0 17:0 18:0 19:0 20:0 21:0 22:1 23:0 24:1 25:1 26:1 27:1 28:0 29:0 30:0 31:0 32:1 33:1 34:1 35:0 36:1 37:1 38:1 39:1 40:1 41:1 42:1 43:0 44:1 45:1 46:1 47:1 48:1 49:1 50:1 51:0 52:0 53:0 54:0 55:0 56:1 57:0 58:0 59:0 60:0 61:0 62:0 63:0 64:0 65:1 66:1 67:1 68:1 69:1 70:1 71:1 72:0 73:1 74:1 75:1 76:1 77:1 78:1 79:1 80:1 81:1 82:1 83:1 84:0 85:0 86:0 87:0 88:0 89:1 90:1 91:0 92:1 93:1 94:0 95:1 96:0 97:1 98:1 99:1 100:0 101:1 102:0 103:0 104:0 105:0 106:0 107:0 108:0 109:0 110:1 111:0 112:0 113:0 114:0 115:0 116:0 117:0 118:0 119:0 120:0 121:0 122:1 123:1 124:1 125:1 126:1 127:1 128:1 129:1 130:1 131:0 132:0 133:1 134:0 135:1 136:0 137:0 138:0 139:0 140:0 141:0 142:0 143:0 144:0 145:0 146:0 147:0 148:1 149:1 150:0 151:0 152:0 153:0 154:0 155:0 156:0 157:0 158:0 159:0 160:0 161:0 162:0 163:0 164:0 165:0 166:0 167:0 168:0 169:0 170:1 171:0 172:0 173:0 174:0 175:0 176:0 177:0 178:0 179:0 180:0 181:0 182:0 183:0 184:0 185:0 186:0 187:0 188:1 189:1 190:1 191:0 192:0 193:0 194:0 195:0 196:0 197:0 198:0 199:0 200:0 201:0 202:0 203:0 204:0 205:0 206:0 207:0 208:0 209:0 210:0 211:0 212:0 213:0 214:0 215:0 216:0 217:0 218:0 219:0 220:0 221:0 222:0 223:0 224:0 225:0 226:0 227:0 228:0 229:0 230:0 231:0 232:0 233:0 234:0 235:0 236:0 237:0 238:0 239:0 240:0 241:0 242:0 243:0 244:0 245:0 246:0 247:0 248:1 249:1 
-0.40997799853923916 1:1 2:1 3:1 4:0 5:1 6:1 7:1 8:1 9:0 10:1 11:1 12:1 13:0 14:1 15:1 16:1 17:1 18:0 19:1 20:0 21:1 22:1 23:1 24:1 25:1 26:1 27:1 28:1 29:1 30:1 31:1 32:1 33:1 34:1 35:1 36:1 37:1 38:1 39:1 40:1 41:1 42:1 43:1 44:1 45:1 46:1 47:1 48:1 49:1 50:1 51:1 52:0 53:1 54:1 55:1 56:1 57:1 58:1 59:1 60:1 61:1 62:1 63:1 64:1 65:1 66:1 67:1 68:1 69:1 70:1 71:1 72:1 73:1 74:1 75:1 76:1 77:1 78:1 79:0 80:0 81:0 82:1 83:1 84:1 85:1 86:1 87:1 88:1 89:1 90:1 91:1 92:1 93:1 94:1 95:1 96:1 97:1 98:1 99:1 100:1 101:1 102:1 103:0 104:1 105:0 106:1 107:1 108:1 109:1 110:1 111:1 112:1 113:1 114:1 115:1 116:0 117:1 118:0 119:1 120:0 121:1 122:1 123:1 124:1 125:1 126:1 127:1 128:1 129:1 130:0 131:0 132:0 133:0 134:0 135:0 136:0 137:0 138:0 139:0 140:0 141:0 142:0 143:0 144:0 145:0 146:0 147:0 148:0 149:0 150:0 151:0 152:0 153:0 154:0 155:0 156:0 157:0 158:0 159:0 160:1 161:1 162:1 163:1 164:1 165:0 166:0 167:0 168:0 169:1 170:1 171:0 172:0 173:0 174:0 175:0 176:0 177:0 178:0 179:0 180:0 181:0 182:0 183:0 184:0 185:0 186:0 187:0 188:1 189:0 190:0 191:1 192:1 193:0 194:0 195:0 196:0 197:0 198:1 199:1 200:1 201:0 202:0 203:0 204:0 205:0 206:0 207:0 208:0 209:1 210:0 211:1 212:1 213:0 214:0 215:0 216:0 217:0 218:0 219:0 220:0 221:1 222:1 223:0 224:1 225:1 226:0 227:0 228:0 229:1 230:1 231:1 232:0 233:0 234:0 235:0 236:0 237:1 238:0 239:1 240:1 241:0 242:0 243:0 244:1 245:1 246:1 247:0 248:1 249:1 
-1 1:1 2:1 3:0 4:0 5:1 6:1 7:1 8:0 9:0 10:1 11:1 12:0 13:1 14:0 15:0 16:0 17:0 18:0 19:0 20:0 21:0 22:1 23:1 24:1 25:1 26:1 27:1 28:1 29:0 30:0 31:1 32:1 33:1 34:1 35:1 36:1 37:1 38:1 39:1 40:1 41:1 42:1 43:1 44:1 45:1 46:1 47:1 48:1 49:1 50:1 51:1 52:0 53:0 54:1 55:1 56:1 57:1 58:0 59:1 60:0 61:1 62:0 63:0 64:1 65:1 66:1 67:1 68:1 69:1 70:1 71:1 72:0 73:1 74:1 75:1 76:1 77:1 78:1 79:1 80:1 81:1 82:1 83:1 84:1 85:1 86:1 87:0 88:1 89:1 90:1 91:0 92:1 93:0 94:0 95:1 96:0 97:1 98:1 99:0 100:0 101:1 102:0 103:0 104:0 105:0 106:0 107:0 108:1 109:0 110:1 111:0 112:0 113:0 114:1 115:1 116:0 117:1 118:0 119:0 120:0 121:0 122:1 123:1 124:1 125:1 126:1 127:1 128:1 129:1 130:0 131:0 132:0 133:0 134:0 135:0 136:0 137:0 138:0 139:0 140:0 141:0 142:0 143:0 144:0 145:0 146:0 147:0 148:0 149:0 150:0 151:0 152:0 153:0 154:0 155:0 156:0 157:0 158:0 159:0 160:0 161:0 162:0 163:0 164:0 165:0 166:0 167:0 168:0 169:0 170:1 171:0 172:0 173:0 174:0 175:0 176:0 177:0 178:0 179:0 180:0 181:0 182:0 183:0 184:0 185:0 186:0 187:0 188:1 189:1 190:1 191:1 192:1 193:0 194:0 195:0 196:0 197:0 198:0 199:0 200:0 201:0 202:0 203:0 204:0 205:0 206:0 207:0 208:0 209:0 210:0 211:0 212:0 213:0 214:0 215:0 216:0 217:0 218:0 219:0 220:0 221:1 222:1 223:0 224:1 225:1 226:0 227:0 228:0 229:0 230:0 231:0 232:0 233:0 234:0 235:0 236:0 237:0 238:0 239:0 240:0 241:0 242:0 243:0 244:0 245:0 246:0 247:0 248:1 249:1 
-0.47322613496176752 1:1 2:1 3:1 4:0 5:1 6:1 7:1 8:1 9:0 10:1 11:1 12:1 13:1 14:1 15:1 16:1 17:0 18:0 19:0 20:0 21:1 22:1 23:1 24:1 25:0 26:1 27:1 28:1 29:1 30:1 31:1 32:1 33:1 34:0 35:1 36:1 37:1 38:1 39:1 40:1 41:1 42:0 43:0 44:0 45:0 46:1 47:0 48:1 49:0 50:1 51:0 52:0 53:0 54:0 55:0 56:0 57:0 58:0 59:1 60:0 61:0 62:0 63:0 64:0 65:0 66:1 67:1 68:1 69:1 70:1 71:1 72:1 73:1 74:0 75:1 76:1 77:1 78:1 79:1 80:1 81:1 82:0 83:0 84:0 85:0 86:0 87:0 88:0 89:1 90:1 91:1 92:1 93:1 94:1 95:1 96:1 97:1 98:0 99:1 100:1 101:1 102:1 103:0 104:0 105:0 106:0 107:0 108:0 109:1 110:0 111:1 112:0 113:1 114:0 115:1 116:0 117:0 118:0 119:0 120:0 121:0 122:1 123:1 124:1 125:1 126:1 127:1 128:1 129:1 130:1 131:1 132:1 133:1 134:1 135:1 136:1 137:1 138:1 139:0 140:0 141:1 142:0 143:1 144:1 145:1 146:1 147:1 148:1 149:1 150:1 151:1 152:1 153:1 154:1 155:0 156:1 157:1 158:0 159:0 160:1 161:1 162:1 163:1 164:0 165:0 166:1 167:0 168:1 169:1 170:1 171:1 172:1 173:1 174:1 175:0 176:0 177:0 178:1 179:0 180:1 181:0 182:1 183:1 184:1 185:1 186:1 187:1 188:1 189:1 190:1 191:1 192:1 193:1 194:1 195:1 196:1 197:1 198:1 199:1 200:1 201:1 202:1 203:1 204:0 205:1 206:1 207:0 208:1 209:1 210:0 211:1 212:1 213:1 214:1 215:0 216:0 217:0 218:0 219:0 220:0 221:1 222:1 223:1 224:1 225:1 226:1 227:1 228:1 229:1 230:1 231:1 232:1 233:1 234:0 235:1 236:0 237:1 238:0 239:1 240:1 241:1 242:0 243:0 244:0 245:0 246:0 247:0 248:1 249:1 
-0.4105459316565378 1:1 2:1 3:0 4:0 5:1 6:0 7:0 8:0 9:0 10:0 11:0 12:0 13:0 14:0 15:0 16:0 17:0 18:0 19:0 20:0 21:0 22:1 23:0 24:1 25:0 26:1 27:1 28:1 29:1 30:1 31:1 32:1 33:1 34:0 35:1 36:0 37:1 38:1 39:1 40:1 41:1 42:0 43:0 44:0 45:0 46:1 47:0 48:1 49:0 50:1 51:0 52:0 53:0 54:0 55:0 56:0 57:0 58:0 59:1 60:0 61:0 62:0 63:0 64:0 65:0 66:1 67:1 68:1 69:1 70:1 71:1 72:1 73:0 74:0 75:0 76:0 77:0 78:0 79:0 80:0 81:0 82:0 83:0 84:0 85:0 86:0 87:0 88:0 89:1 90:1 91:1 92:1 93:1 94:1 95:1 96:1 97:1 98:0 99:1 100:1 101:1 102:1 103:0 104:0 105:0 106:0 107:0 108:0 109:1 110:0 111:1 112:0 113:1 114:0 115:1 116:0 117:0 118:0 119:0 120:0 121:0 122:1 123:1 124:1 125:1 126:1 127:1 128:1 129:1 130:1 131:1 132:1 133:1 134:1 135:0 136:0 137:0 138:0 139:0 140:0 141:0 142:0 143:0 144:0 145:0 146:0 147:0 148:0 149:0 150:1 151:1 152:1 153:1 154:1 155:0 156:1 157:1 158:0 159:0 160:1 161:1 162:1 163:1 164:0 165:0 166:1 167:0 168:1 169:1 170:0 171:0 172:0 173:0 174:0 175:0 176:0 177:0 178:0 179:0 180:0 181:0 182:0 183:0 184:0 185:0 186:0 187:0 188:0 189:0 190:0 191:1 192:1 193:1 194:1 195:1 196:1 197:1 198:1 199:1 200:1 201:1 202:1 203:1 204:0 205:1 206:1 207:0 208:1 209:1 210:0 211:1 212:1 213:1 214:1 215:0 216:0 217:0 218:0 219:0 220:0 221:1 222:1 223:1 224:1 225:1 226:1 227:1 228:1 229:1 230:1 231:1 232:1 233:1 234:0 235:1 236:0 237:1 238:0 239:1 240:1 241:1 242:0 243:0 244:0 245:0 246:0 247:0 248:1 249:1 
-0.52575524625096148 1:1 2:1 3:1 4:0 5:1 6:1 7:1 8:0 9:0 10:1 11:1 12:0 13:1 14:1 15:1 16:1 17:1 18:0 19:0 20:0 21:0 22:1 23:0 24:1 25:0 26:1 27:1 28:1 29:1 30:1 31:1 32:1 33:1 34:0 35:1 36:1 37:1 38:1 39:1 40:1 41:1 42:1 43:1 44:1 45:1 46:1 47:1 48:1 49:1 50:1 51:1 52:0 53:1 54:1 55:1 56:1 57:1 58:1 59:1 60:1 61:1 62:1 63:1 64:1 65:1 66:1 67:1 68:1 69:1 70:1 71:1 72:1 73:1 74:1 75:1 76:1 77:1 78:1 79:1 80:1 81:1 82:1 83:1 84:1 85:1 86:1 87:1 88:1 89:1 90:1 91:1 92:1 93:1 94:1 95:1 96:1 97:1 98:1 99:1 100:1 101:1 102:1 103:0 104:1 105:0 106:1 107:0 108:1 109:1 110:1 111:1 112:1 113:1 114:1 115:1 116:0 117:1 118:0 119:1 120:0 121:1 122:1 123:1 124:1 125:1 126:1 127:1 128:1 129:1 130:1 131:1 132:1 133:1 134:1 135:1 136:1 137:1 138:1 139:0 140:0 141:1 142:0 143:1 144:1 145:1 146:1 147:1 148:1 149:1 150:1 151:1 152:1 153:1 154:1 155:0 156:1 157:1 158:0 159:0 160:1 161:1 162:1 163:1 164:0 165:0 166:1 167:0 168:1 169:1 170:1 171:1 172:1 173:1 174:1 175:0 176:0 177:0 178:1 179:0 180:1 181:0 182:1 183:1 184:1 185:1 186:1 187:1 188:1 189:1 190:1 191:1 192:1 193:1 194:1 195:1 196:1 197:1 198:1 199:1 200:1 201:1 202:1 203:1 204:0 205:1 206:1 207:0 208:1 209:1 210:0 211:1 212:1 213:1 214:1 215:0 216:0 217:0 218:0 219:0 220:0 221:1 222:1 223:1 224:1 225:1 226:1 227:1 228:1 229:1 230:1 231:1 232:1 233:1 234:0 235:1 236:0 237:1 238:0 239:1 240:1 241:1 242:0 243:0 244:0 245:0 246:0 247:0 248:1 249:1 
-0.1040315109693485 1:1 2:1 3:1 4:0 5:1 6:1 7:1 8:1 9:0 10:1 11:1 12:1 13:1 14:1 15:1 16:1 17:0 18:0 19:0 20:0 21:1 22:1 23:0 24:0 25:0 26:0 27:0 28:0 29:0 30:0 31:0 32:0 33:0 34:0 35:0 36:0 37:1 38:1 39:1 40:1 41:1 42:0 43:0 44:0 45:0 46:1 47:0 48:1 49:0 50:1 51:0 52:0 53:0 54:0 55:0 56:0 57:0 58:0 59:0 60:0 61:0 62:0 63:0 64:0 65:0 66:1 67:0 68:0 69:1 70:1 71:1 72:1 73:1 74:0 75:1 76:0 77:1 78:1 79:1 80:0 81:1 82:0 83:0 84:0 85:0 86:0 87:0 88:0 89:1 90:1 91:1 92:1 93:1 94:0 95:1 96:0 97:1 98:0 99:1 100:1 101:1 102:0 103:0 104:0 105:0 106:0 107:0 108:0 109:0 110:0 111:0 112:0 113:0 114:0 115:0 116:0 117:0 118:0 119:0 120:0 121:0 122:1 123:0 124:0 125:0 126:0 127:0 128:0 129:0 130:0 131:0 132:0 133:0 134:0 135:0 136:0 137:0 138:0 139:0 140:0 141:0 142:0 143:0 144:0 145:0 146:0 147:0 148:0 149:0 150:0 151:0 152:0 153:0 154:0 155:0 156:0 157:0 158:0 159:0 160:0 161:0 162:0 163:0 164:0 165:0 166:0 167:0 168:0 169:0 170:0 171:0 172:0 173:0 174:0 175:0 176:0 177:0 178:0 179:0 180:0 181:0 182:0 183:0 184:0 185:0 186:0 187:0 188:0 189:0 190:0 191:0 192:0 193:0 194:0 195:0 196:0 197:0 198:0 199:0 200:0 201:0 202:0 203:0 204:0 205:0 206:0 207:0 208:0 209:0 210:0 211:0 212:0 213:0 214:0 215:0 216:0 217:0 218:0 219:0 220:0 221:0 222:0 223:0 224:0 225:0 226:0 227:0 228:0 229:0 230:0 231:0 232:0 233:0 234:0 235:0 236:0 237:0 238:0 239:0 240:0 241:0 242:0 243:0 244:0 245:0 246:0 247:0 248:1 249:1 
-0.13148012851622182 1:1 2:1 3:1 4:1 5:1 6:1 7:1 8:1 9:1 10:1 11:1 12:1 13:1 14:1 15:1 16:1 17:1 18:0 19:1 20:1 21:1 22:1 23:0 24:1 25:0 26:1 27:1 28:1 29:1 30:1 31:1 32:1 33:1 34:0 35:1 36:1 37:1 38:1 39:1 40:1 41:1 42:1 43:1 44:1 45:1 46:1 47:1 48:1 49:1 50:1 51:1 52:1 53:1 54:1 55:1 56:1 57:1 58:1 59:1 60:1 61:1 62:1 63:1 64:1 65:1 66:1 67:1 68:1 69:1 70:1 71:1 72:1 73:1 74:1 75:1 76:1 77:1 78:1 79:1 80:1 81:1 82:1 83:1 84:1 85:1 86:1 87:1 88:1 89:1 90:1 91:1 92:1 93:1 94:1 95:1 96:1 97:1 98:1 99:1 100:1 101:1 102:1 103:0 104:1 105:0 106:1 107:0 108:1 109:1 110:1 111:1 112:0 113:1 114:1 115:1 116:1 117:1 118:0 119:1 120:0 121:1 122:1 123:1 124:1 125:1 126:1 127:1 128:1 129:1 130:1 131:1 132:1 133:1 134:1 135:1 136:1 137:1 138:1 139:0 140:0 141:1 142:0 143:1 144:1 145:1 146:1 147:1 148:1 149:1 150:1 151:1 152:1 153:1 154:1 155:0 156:1 157:1 158:0 159:0 160:1 161:1 162:1 163:1 164:0 165:0 166:1 167:0 168:1 169:1 170:1 171:1 172:1 173:1 174:1 175:0 176:0 177:0 178:1 179:0 180:1 181:0 182:1 183:1 184:1 185:1 186:1 187:1 188:1 189:1 190:1 191:1 192:1 193:1 194:1 195:1 196:1 197:1 198:1 199:1 200:1 201:1 202:1 203:1 204:0 205:1 206:1 207:0 208:1 209:1 210:0 211:1 212:1 213:1 214:1 215:0 216:0 217:0 218:0 219:0 220:0 221:1 222:1 223:1 224:1 225:1 226:1 227:1 228:1 229:1 230:1 231:1 232:1 233:1 234:0 235:1 236:0 237:1 238:0 239:1 240:1 241:1 242:0 243:0 244:0 245:0 246:0 247:0 248:1 249:1 
-0.47156455118177043 1:1 2:1 3:1 4:1 5:1 6:1 7:1 8:1 9:1 10:1 11:1 12:1 13:1 14:1 15:1 16:1 17:1 18:0 19:1 20:1 21:1 22:1 23:0 24:1 25:0 26:1 27:1 28:1 29:1 30:1 31:1 32:1 33:1 34:0 35:1 36:1 37:1 38:1 39:1 40:1 41:1 42:1 43:1 44:1 45:1 46:1 47:0 48:1 49:1 50:1 51:1 52:0 53:1 54:1 55:1 56:1 57:1 58:1 59:1 60:1 61:1 62:1 63:1 64:1 65:1 66:1 67:1 68:1 69:1 70:1 71:1 72:1 73:1 74:1 75:1 76:1 77:1 78:1 79:1 80:1 81:1 82:1 83:1 84:1 85:1 86:1 87:1 88:1 89:1 90:1 91:1 92:1 93:1 94:1 95:1 96:1 97:1 98:1 99:1 100:1 101:1 102:1 103:0 104:1 105:0 106:1 107:0 108:1 109:1 110:1 111:1 112:0 113:1 114:1 115:1 116:0 117:1 118:0 119:1 120:0 121:1 122:1 123:1 124:1 125:1 126:1 127:1 128:1 129:1 130:1 131:1 132:1 133:1 134:1 135:1 136:1 137:1 138:1 139:0 140:0 141:1 142:0 143:1 144:1 145:1 146:1 147:1 148:1 149:1 150:1 151:1 152:1 153:1 154:1 155:0 156:1 157:1 158:0 159:0 160:1 161:1 162:1 163:1 164:0 165:0 166:1 167:0 168:1 169:1 170:1 171:1 172:1 173:1 174:1 175:0 176:0 177:0 178:1 179:0 180:1 181:0 182:1 183:1 184:1 185:1 186:1 187:1 188:1 189:1 190:1 191:1 192:1 193:1 194:1 195:1 196:1 197:1 198:1 199:1 200:1 201:1 202:1 203:1 204:0 205:1 206:1 207:0 208:1 209:1 210:0 211:1 212:1 213:1 214:1 215:0 216:0 217:0 218:0 219:0 220:0 221:1 222:1 223:1 224:1 225:1 226:1 227:1 228:1 229:1 230:1 231:1 232:1 233:1 234:0 235:1 236:0 237:1 238:0 239:1 240:1 241:1 242:0 243:0 244:0 245:0 246:0 247:0 248:1 249:1 
-1 1:1 2:1 3:0 4:0 5:1 6:1 7:1 8:0 9:0 10:1 11:1 12:0 13:1 14:0 15:0 16:0 17:0 18:0 19:0 20:0 21:0 22:1 23:1 24:1 25:0 26:0 27:0 28:1 29:1 30:1 31:1 32:1 33:0 34:0 35:1 36:1 37:1 38:1 39:1 40:1 41:1 42:1 43:1 44:1 45:1 46:1 47:1 48:1 49:1 50:1 51:1 52:0 53:1 54:1 55:1 56:1 57:1 58:1 59:1 60:0 61:1 62:1 63:1 64:1 65:1 66:1 67:0 68:0 69:1 70:1 71:1 72:1 73:1 74:1 75:1 76:0 77:1 78:1 79:1 80:0 81:0 82:1 83:1 84:1 85:1 86:1 87:0 88:1 89:1 90:1 91:1 92:1 93:1 94:1 95:1 96:1 97:1 98:1 99:1 100:1 101:1 102:1 103:1 104:1 105:0 106:1 107:0 108:1 109:1 110:1 111:1 112:0 113:1 114:1 115:1 116:0 117:1 118:1 119:1 120:1 121:1 122:1 123:0 124:0 125:1 126:0 127:0 128:1 129:0 130:0 131:0 132:0 133:1 134:1 135:1 136:1 137:1 138:1 139:0 140:0 141:1 142:0 143:1 144:1 145:1 146:1 147:0 148:0 149:0 150:1 151:1 152:1 153:1 154:1 155:1 156:1 157:1 158:1 159:1 160:1 161:1 162:1 163:1 164:0 165:0 166:1 167:0 168:1 169:1 170:1 171:1 172:1 173:1 174:1 175:0 176:0 177:0 178:0 179:0 180:1 181:0 182:0 183:0 184:1 185:0 186:0 187:0 188:0 189:0 190:0 191:1 192:0 193:0 194:0 195:0 196:0 197:0 198:1 199:1 200:1 201:0 202:0 203:0 204:0 205:0 206:0 207:0 208:0 209:1 210:1 211:1 212:1 213:0 214:0 215:0 216:0 217:1 218:1 219:0 220:0 221:1 222:0 223:0 224:1 225:0 226:0 227:0 228:0 229:1 230:1 231:0 232:0 233:0 234:0 235:0 236:0 237:1 238:0 239:1 240:0 241:0 242:0 243:0 244:0 245:0 246:0 247:0 248:1 249:1 
-0.66914556746952247 1:1 2:1 3:0 4:0 5:1 6:1 7:1 8:0 9:0 10:1 11:1 12:0 13:0 14:0 15:0 16:0 17:0 18:0 19:0 20:0 21:0 22:1 23:1 24:1 25:0 26:1 27:1 28:1 29:1 30:1 31:1 32:1 33:1 34:0 35:1 36:1 37:1 38:1 39:1 40:1 41:1 42:1 43:1 44:1 45:1 46:1 47:1 48:1 49:1 50:1 51:1 52:0 53:0 54:1 55:1 56:1 57:1 58:0 59:1 60:0 61:1 62:0 63:0 64:1 65:1 66:1 67:1 68:1 69:1 70:1 71:1 72:1 73:1 74:1 75:1 76:1 77:1 78:1 79:0 80:0 81:0 82:1 83:1 84:1 85:1 86:1 87:0 88:1 89:1 90:1 91:1 92:1 93:1 94:1 95:1 96:1 97:1 98:1 99:1 100:1 101:1 102:1 103:0 104:0 105:0 106:0 107:0 108:1 109:1 110:1 111:1 112:1 113:1 114:1 115:1 116:0 117:1 118:0 119:0 120:1 121:0 122:1 123:1 124:1 125:1 126:1 127:1 128:1 129:1 130:1 131:1 132:1 133:1 134:1 135:0 136:0 137:0 138:0 139:0 140:0 141:0 142:0 143:0 144:0 145:0 146:0 147:0 148:0 149:0 150:1 151:1 152:1 153:1 154:1 155:0 156:1 157:1 158:0 159:0 160:1 161:1 162:1 163:1 164:0 165:1 166:1 167:0 168:1 169:1 170:1 171:0 172:0 173:0 174:0 175:0 176:0 177:0 178:0 179:0 180:0 181:0 182:0 183:0 184:0 185:0 186:0 187:0 188:1 189:0 190:0 191:1 192:1 193:1 194:1 195:1 196:1 197:1 198:1 199:1 200:1 201:1 202:1 203:1 204:0 205:1 206:1 207:0 208:1 209:1 210:0 211:1 212:1 213:1 214:1 215:0 216:0 217:0 218:1 219:0 220:0 221:1 222:1 223:1 224:1 225:1 226:1 227:1 228:1 229:1 230:1 231:1 232:1 233:1 234:0 235:1 236:0 237:1 238:0 239:1 240:1 241:1 242:1 243:1 244:1 245:0 246:0 247:0 248:1 249:1 
-0.22439557849535749 1:1 2:1 3:0 4:0 5:1 6:1 7:1 8:0 9:0 10:1 11:1 12:0 13:1 14:0 15:0 16:0 17:0 18:0 19:0 20:0 21:0 22:1 23:1 24:1 25:0 26:1 27:1 28:0 29:0 30:0 31:0 32:1 33:0 34:0 35:0 36:1 37:1 38:1 39:1 40:1 41:1 42:0 43:0 44:0 45:0 46:1 47:0 48:1 49:0 50:1 51:0 52:0 53:0 54:0 55:0 56:0 57:0 58:0 59:1 60:0 61:0 62:0 63:0 64:0 65:0 66:1 67:1 68:1 69:1 70:1 71:1 72:1 73:1 74:0 75:1 76:1 77:1 78:1 79:1 80:1 81:1 82:0 83:0 84:0 85:0 86:0 87:0 88:0 89:1 90:1 91:1 92:1 93:1 94:1 95:1 96:1 97:1 98:0 99:1 100:1 101:1 102:1 103:0 104:0 105:0 106:0 107:0 108:0 109:1 110:0 111:1 112:0 113:1 114:0 115:1 116:0 117:0 118:0 119:0 120:0 121:0 122:1 123:1 124:1 125:1 126:1 127:1 128:1 129:0 130:0 131:0 132:0 133:0 134:0 135:0 136:0 137:0 138:0 139:0 140:0 141:0 142:0 143:0 144:0 145:0 146:0 147:0 148:0 149:0 150:0 151:0 152:0 153:0 154:0 155:0 156:0 157:0 158:0 159:0 160:0 161:0 162:0 163:0 164:0 165:0 166:0 167:0 168:0 169:0 170:1 171:0 172:0 173:0 174:0 175:0 176:0 177:0 178:0 179:0 180:0 181:0 182:0 183:0 184:0 185:0 186:0 187:0 188:1 189:1 190:1 191:0 192:0 193:0 194:0 195:0 196:0 197:0 198:0 199:0 200:0 201:0 202:0 203:0 204:0 205:0 206:0 207:0 208:0 209:0 210:0 211:0 212:0 213:0 214:0 215:0 216:0 217:0 218:0 219:0 220:0 221:0 222:0 223:0 224:0 225:0 226:0 227:0 228:0 229:0 230:0 231:0 232:0 233:0 234:0 235:0 236:0 237:0 238:0 239:0 240:0 241:0 242:0 243:0 244:0 245:0 246:0 247:0 248:1 249:1 
-0.31224018317609004 1:1 2:1 3:1 4:0 5:1 6:1 7:0 8:1 9:0 10:0 11:1 12:1 13:0 14:1 15:1 16:1 17:1 18:0 19:1 20:0 21:1 22:1 23:0 24:1 25:1 26:1 27:1 28:0 29:0 30:0 31:0 32:1 33:0 34:1 35:1 36:0 37:1 38:1 39:1 40:1 41:1 42:1 43:1 44:1 45:1 46:1 47:0 48:1 49:1 50:1 51:1 52:0 53:0 54:1 55:1 56:1 57:1 58:0 59:1 60:0 61:1 62:0 63:0 64:1 65:1 66:1 67:1 68:1 69:1 70:1 71:1 72:1 73:1 74:1 75:0 76:0 77:0 78:1 79:0 80:0 81:0 82:1 83:1 84:1 85:1 86:1 87:0 88:1 89:1 90:1 91:1 92:1 93:1 94:1 95:1 96:1 97:1 98:1 99:1 100:1 101:1 102:1 103:0 104:0 105:0 106:0 107:0 108:1 109:1 110:1 111:1 112:0 113:1 114:1 115:1 116:0 117:1 118:0 119:0 120:0 121:0 122:1 123:1 124:1 125:1 126:1 127:1 128:1 129:0 130:0 131:0 132:0 133:0 134:0 135:0 136:0 137:0 138:0 139:0 140:0 141:0 142:0 143:0 144:0 145:0 146:0 147:0 148:0 149:0 150:0 151:0 152:0 153:0 154:0 155:0 156:0 157:0 158:0 159:0 160:0 161:0 162:0 163:0 164:0 165:0 166:0 167:0 168:0 169:0 170:0 171:0 172:0 173:0 174:0 175:0 176:0 177:0 178:0 179:0 180:0 181:0 182:0 183:0 184:0 185:0 186:0 187:0 188:0 189:0 190:0 191:1 192:0 193:0 194:0 195:0 196:0 197:0 198:0 199:0 200:1 201:0 202:0 203:0 204:0 205:0 206:0 207:0 208:0 209:0 210:0 211:0 212:0 213:0 214:0 215:0 216:0 217:0 218:0 219:0 220:0 221:0 222:0 223:0 224:0 225:0 226:0 227:0 228:0 229:0 230:0 231:0 232:0 233:0 234:0 235:0 236:0 237:0 238:0 239:0 240:0 241:0 242:0 243:0 244:0 245:0 246:0 247:0 248:1 249:1 
